{"learner":{"attributes":{"scikit_learn":"{\"_estimator_type\": \"classifier\"}"},"feature_names":[],"feature_types":[],"gradient_booster":{"model":{"cats":{"enc":[],"feature_segments":[],"sorted_idx":[]},"gbtree_model_param":{"num_parallel_tree":"1","num_trees":"300"},"iteration_indptr":[0,3,6,9,12,15,18,21,24,27,30,33,36,39,42,45,48,51,54,57,60,63,66,69,72,75,78,81,84,87,90,93,96,99,102,105,108,111,114,117,120,123,126,129,132,135,138,141,144,147,150,153,156,159,162,165,168,171,174,177,180,183,186,189,192,195,198,201,204,207,210,213,216,219,222,225,228,231,234,237,240,243,246,249,252,255,258,261,264,267,270,273,276,279,282,285,288,291,294,297,300],"tree_info":[0,1,2,0,1,2,0,1,2,0,1,2,0,1,2,0,1,2,0,1,2,0,1,2,0,1,2,0,1,2,0,1,2,0,1,2,0,1,2,0,1,2,0,1,2,0,1,2,0,1,2,0,1,2,0,1,2,0,1,2,0,1,2,0,1,2,0,1,2,0,1,2,0,1,2,0,1,2,0,1,2,0,1,2,0,1,2,0,1,2,0,1,2,0,1,2,0,1,2,0,1,2,0,1,2,0,1,2,0,1,2,0,1,2,0,1,2,0,1,2,0,1,2,0,1,2,0,1,2,0,1,2,0,1,2,0,1,2,0,1,2,0,1,2,0,1,2,0,1,2,0,1,2,0,1,2,0,1,2,0,1,2,0,1,2,0,1,2,0,1,2,0,1,2,0,1,2,0,1,2,0,1,2,0,1,2,0,1,2,0,1,2,0,1,2,0,1,2,0,1,2,0,1,2,0,1,2,0,1,2,0,1,2,0,1,2,0,1,2,0,1,2,0,1,2,0,1,2,0,1,2,0,1,2,0,1,2,0,1,2,0,1,2,0,1,2,0,1,2,0,1,2,0,1,2,0,1,2,0,1,2,0,1,2,0,1,2,0,1,2,0,1,2,0,1,2,0,1,2,0,1,2,0,1,2,0,1,2,0,1,2,0,1,2,0,1,2,0,1,2],"trees":[{"base_weights":[4.426102E-6,-1.7002623E-1,4.1375943E-2,-2.2876185E-1,9.1641985E-2,-3.0938387E-2,1.331903E-1,-2.633342E-1,2.4724318E-1,3.2886222E-1,-2.4395765E-1,1.1535375E-1,-9.3612626E-2,2.5975952E-1,-6.4203255E-2,-2.75819E-1,8.165907E-1,5.744375E-1,-7.061435E-1,-2.8287172E-1,4.914367E-1,8.272367E-1,-3.676217E-1,1.1142735E0,8.201729E-2,-4.1386223E-1,-5.405184E-2,7.6407534E-1,2.1693829E-1,5.8515114E-1,-1.252523E-1,-3.8094637E-1,-1.6102673E-1,1.1897352E0,-2.1417193E-1,-2.4819687E-1,9.268738E-1,-6.425158E-2,-2.2499932E-1,9.930709E-1,-5.505432E-1,-1.0240747E-1,7.245729E-1,1.3741663E0,-2.7454323E-1,-4.3010002E-1,4.5000267E-1,1.3294346E0,-3.2268807E-1,4.0209442E-1,-2.841195E-3,-4.3746403E-1,1.235365E0,2.3831774E-2,-1.9018525E-1,1.5444887E-1,1.1144226E0,3.4346065E-1,8.765886E-2,9.6280396E-1,1.9824554E-3,2.6710293E-1,-1.7620364E-1,1.4669308E-1,-1.2180307E-1,-5.6653164E-2,2.898656E-1,3.4659863E-2,4.5000267E-1,1.0165995E-1,-2.2499932E-1,-1.8486781E-1,2.5718206E-1,3.1669778E-1,-2.2499932E-1,4.5000267E-1,-6.425158E-2,4.5000267E-1,-2.0380111E-1,1.8907847E-1,-1.8529162E-1,3.1805715E-1,5.8324136E-2,2.7298814E-1,4.5000267E-1,1.0165995E-1,-2.2499932E-1,5.369472E-2,-1.754447E-1,5.3715296E-2,4.3858916E-1,1.0165995E-1,-2.2499932E-1,3.135954E-1,7.315218E-2,1.7790018E-2,-1.1339636E-1,2.4278486E-2,-1.4819431E-1,2.7298814E-1,4.5000267E-1,-1.1565902E-2,9.356414E-2,1.6952652E-1,-6.5333895E-2,-1.4429721E-1,2.4604918E-1,7.763274E-2,3.780762E-1,4.540742E-2,1.4932016E-1,5.392182E-2,-1.0196114E-1,3.408712E-1,2.199481E-2,4.052005E-1,-9.1344595E-2,-9.326847E-3,2.3766632E-1,-8.460155E-2,8.56218E-3],"categories":[],"categories_nodes":[],"categories_segments":[],"categories_sizes":[],"default_left":[0,0,0,0,0,0,0,0,0,0,0,0,0,0,0,0,0,0,0,0,0,0,0,0,0,0,0,0,0,0,0,0,0,0,0,0,0,0,0,0,0,0,0,0,0,0,0,0,0,0,0,0,0,0,0,0,0,0,0,0,0,0,0,0,0,0,0,0,0,0,0,0,0,0,0,0,0,0,0,0,0,0,0,0,0,0,0,0,0,0,0,0,0,0,0,0,0,0,0,0,0,0,0,0,0,0,0,0,0,0,0,0,0,0,0,0,0,0,0,0,0],"id":0,"left_children":[1,3,5,7,9,11,13,15,17,19,21,23,25,27,29,31,33,35,37,39,41,43,45,47,49,51,53,55,57,59,61,63,65,67,69,71,73,-1,-1,75,77,79,81,83,85,87,-1,89,91,93,95,97,99,101,103,105,107,109,111,113,115,117,119,-1,-1,-1,-1,-1,-1,-1,-1,-1,-1,-1,-1,-1,-1,-1,-1,-1,-1,-1,-1,-1,-1,-1,-1,-1,-1,-1,-1,-1,-1,-1,-1,-1,-1,-1,-1,-1,-1,-1,-1,-1,-1,-1,-1,-1,-1,-1,-1,-1,-1,-1,-1,-1,-1,-1,-1,-1,-1],"loss_changes":[4.0577576E1,1.7350101E1,3.0804218E1,1.517202E1,1.6475046E1,2.3796408E1,5.107121E1,1.1588493E1,1.9473545E1,1.2057901E1,1.135269E1,2.5921734E1,2.3019688E1,2.6897667E1,3.165984E1,1.0253899E1,3.7781882E0,1.3474717E1,3.441286E-1,8.694173E0,1.3261347E1,5.344908E0,8.965183E0,7.772398E0,2.0460068E1,7.776108E0,1.7146349E1,2.0819885E1,1.877829E1,1.5115019E1,1.4593511E1,9.670273E0,1.2736304E1,2.4038057E0,7.736875E-1,5.6712413E0,7.026535E0,0E0,0E0,2.701518E0,5.557167E0,1.0193656E1,1.2238647E1,3.4625912E-1,8.581455E-1,7.0058136E0,0E0,3.333519E0,9.2549896E-1,1.6068773E1,1.3880557E1,5.7703705E0,2.4272585E-1,1.8485098E1,1.2265451E1,1.5049353E1,7.724411E0,1.7195274E1,2.2354082E1,6.426079E0,1.1149689E1,1.3138017E1,1.3995991E1,0E0,0E0,0E0,0E0,0E0,0E0,0E0,0E0,0E0,0E0,0E0,0E0,0E0,0E0,0E0,0E0,0E0,0E0,0E0,0E0,0E0,0E0,0E0,0E0,0E0,0E0,0E0,0E0,0E0,0E0,0E0,0E0,0E0,0E0,0E0,0E0,0E0,0E0,0E0,0E0,0E0,0E0,0E0,0E0,0E0,0E0,0E0,0E0,0E0,0E0,0E0,0E0,0E0,0E0,0E0,0E0,0E0,0E0],"parents":[2147483647,0,0,1,1,2,2,3,3,4,4,5,5,6,6,7,7,8,8,9,9,10,10,11,11,12,12,13,13,14,14,15,15,16,16,17,17,18,18,19,19,20,20,21,21,22,22,23,23,24,24,25,25,26,26,27,27,28,28,29,29,30,30,31,31,32,32,33,33,34,34,35,35,36,36,39,39,40,40,41,41,42,42,43,43,44,44,45,45,47,47,48,48,49,49,50,50,51,51,52,52,53,53,54,54,55,55,56,56,57,57,58,58,59,59,60,60,61,61,62,62],"right_children":[2,4,6,8,10,12,14,16,18,20,22,24,26,28,30,32,34,36,38,40,42,44,46,48,50,52,54,56,58,60,62,64,66,68,70,72,74,-1,-1,76,78,80,82,84,86,88,-1,90,92,94,96,98,100,102,104,106,108,110,112,114,116,118,120,-1,-1,-1,-1,-1,-1,-1,-1,-1,-1,-1,-1,-1,-1,-1,-1,-1,-1,-1,-1,-1,-1,-1,-1,-1,-1,-1,-1,-1,-1,-1,-1,-1,-1,-1,-1,-1,-1,-1,-1,-1,-1,-1,-1,-1,-1,-1,-1,-1,-1,-1,-1,-1,-1,-1,-1,-1,-1],"split_conditions":[5.4697984E-1,1.5618848E0,2.753414E-1,9.395091E-2,1.196486E-1,-1.6140418E0,2.3046376E-1,8.5181594E-1,9.6276456E-1,4.5151827E-1,9.413234E-3,1.1E1,1.4904763E-1,4.2686766E-1,-8.236353E-1,1.1902004E0,5.3724278E-2,1.7043915E-1,3.0792492E-2,2.7511944E-4,2.3091464E-1,3.0719277E-1,1.1861475E0,3.6138654E-1,3.1801283E-1,1.2027273E0,3.102742E-2,7.112873E-1,2.6636556E-1,1.416171E0,2.436349E-2,4.4770753E-3,2.2842243E0,4.8495866E-2,2.2005574E-1,1.4199508E-2,1.7487724E0,-6.425158E-2,-2.2499932E-1,8.809494E-1,8.1370795E-1,4.658698E-1,5.426609E-1,2.6219866E-1,2.8787512E-1,6.262627E-2,4.5000267E-1,4.9894908E-1,6.301883E-1,5.1735425E-1,8.2042426E-1,1.7674878E-1,2.132121E-1,1.8714936E-1,4.3482915E-2,2.1749067E-1,1.7856188E-1,3.8E1,1.7E1,-6.250999E-1,6.927998E-2,8.451574E-1,8.860769E-2,1.4669308E-1,-1.2180307E-1,-5.6653164E-2,2.898656E-1,3.4659863E-2,4.5000267E-1,1.0165995E-1,-2.2499932E-1,-1.8486781E-1,2.5718206E-1,3.1669778E-1,-2.2499932E-1,4.5000267E-1,-6.425158E-2,4.5000267E-1,-2.0380111E-1,1.8907847E-1,-1.8529162E-1,3.1805715E-1,5.8324136E-2,2.7298814E-1,4.5000267E-1,1.0165995E-1,-2.2499932E-1,5.369472E-2,-1.754447E-1,5.3715296E-2,4.3858916E-1,1.0165995E-1,-2.2499932E-1,3.135954E-1,7.315218E-2,1.7790018E-2,-1.1339636E-1,2.4278486E-2,-1.4819431E-1,2.7298814E-1,4.5000267E-1,-1.1565902E-2,9.356414E-2,1.6952652E-1,-6.5333895E-2,-1.4429721E-1,2.4604918E-1,7.763274E-2,3.780762E-1,4.540742E-2,1.4932016E-1,5.392182E-2,-1.0196114E-1,3.408712E-1,2.199481E-2,4.052005E-1,-9.1344595E-2,-9.326847E-3,2.3766632E-1,-8.460155E-2,8.56218E-3],"split_indices":[109,111,524,306,59,512,285,326,503,315,206,535,451,533,513,351,440,0,10,433,240,85,48,77,458,353,101,24,410,81,95,333,147,196,2,469,255,0,0,13,506,210,290,2,1,293,0,304,7,114,63,239,1,49,59,2,152,538,537,521,95,431,526,0,0,0,0,0,0,0,0,0,0,0,0,0,0,0,0,0,0,0,0,0,0,0,0,0,0,0,0,0,0,0,0,0,0,0,0,0,0,0,0,0,0,0,0,0,0,0,0,0,0,0,0,0,0,0,0,0,0],"split_type":[0,0,0,0,0,0,0,0,0,0,0,0,0,0,0,0,0,0,0,0,0,0,0,0,0,0,0,0,0,0,0,0,0,0,0,0,0,0,0,0,0,0,0,0,0,0,0,0,0,0,0,0,0,0,0,0,0,0,0,0,0,0,0,0,0,0,0,0,0,0,0,0,0,0,0,0,0,0,0,0,0,0,0,0,0,0,0,0,0,0,0,0,0,0,0,0,0,0,0,0,0,0,0,0,0,0,0,0,0,0,0,0,0,0,0,0,0,0,0,0,0],"sum_hessian":[5.7684277E3,1.1288844E3,4.6395435E3,9.219401E2,2.0694426E2,2.5953823E3,2.044161E3,8.595134E2,6.2426674E1,1.21243034E2,8.5701225E1,7.7842004E2,1.8169624E3,1.2455265E3,7.9863446E2,8.4969037E2,9.823088E0,4.647637E1,1.59503E1,2.5456293E1,9.578674E1,8.869803E0,7.683142E1,2.5138884E1,7.532812E2,1.9977315E2,1.6171892E3,9.748008E1,1.1480464E3,6.863124E1,7.3000323E2,4.4351602E2,4.0617432E2,7.2122097E0,2.6108782E0,1.3939553E1,3.253682E1,1.3054391E0,1.4644861E1,4.4142656E0,2.1042027E1,2.7003494E1,6.878325E1,5.927407E0,2.942397E0,7.434436E1,2.4870613E0,2.1864967E1,3.273916E0,1.5785793E2,5.954232E2,1.9695457E2,2.8185802E0,1.0286727E3,5.885164E2,3.557584E1,6.190424E1,5.8021014E2,5.678363E2,4.1655598E1,2.6975647E1,8.390274E1,6.4610046E2,1.2420542E1,4.3109546E2,3.9639252E2,9.781816E0,1.6163218E0,5.5958877E0,1.2848029E0,1.3260753E0,1.0457936E1,3.4816177E0,3.0216187E1,2.3206317E0,3.1088266E0,1.3054391E0,1.2435306E0,1.9798496E1,1.1149163E1,1.5854331E1,4.2119484E1,2.6663767E1,1.2641668E0,4.66324E0,1.2848029E0,1.6575942E0,1.5059267E1,5.9285095E1,2.2587233E0,1.9606243E1,1.2848029E0,1.989113E0,3.116947E1,1.2668845E2,5.1081E2,8.4613235E1,1.9361801E1,1.7759277E2,1.2641668E0,1.5544133E0,8.4554663E2,1.8312616E2,2.0743914E1,5.677725E2,1.8201813E1,1.7374027E1,9.014257E0,5.2889984E1,2.5842126E2,3.2178885E2,4.6720953E2,1.00626785E2,3.485879E1,6.796806E0,4.9947586E0,2.1980888E1,5.3514256E1,3.0388487E1,4.2597702E2,2.2012347E2],"tree_param":{"num_deleted":"0","num_feature":"539","num_nodes":"121","size_leaf_vector":"1"}},{"base_weights":[-1.2450929E-5,3.0127016E-1,-6.9786884E-2,3.9909875E-1,-2.6195908E-1,-3.452243E-1,-3.1631216E-2,-6.653259E-1,4.6178222E-1,9.9518555E-1,-3.4526113E-1,-4.1808888E-1,2.9200417E-1,6.705901E-2,-1.4448863E-1,-7.500062E-1,4.4999254E-1,-2.5051844E-1,5.1530284E-1,-2.2500187E-1,1.4999751E0,-5.0789374E-1,4.8293266E-1,-5.8202815E-1,-1.6382986E-1,-2.2500187E-1,6.2927806E-1,8.216035E-3,3.6346298E-1,-2.5412217E-1,1.2846822E-1,-2.2500187E-1,-7.500062E-1,-6.4416224E-1,5.639144E-1,6.588905E-1,2.4325268E-1,4.4999254E-1,4.4999254E-1,1.7383713E-1,-6.648998E-1,-2.2500187E-1,1.0983361E0,9.323175E-1,-6.341653E-1,-3.041265E-1,5.103366E-1,8.800674E-1,-2.2500187E-1,4.276274E-1,-4.308751E-2,1.4412086E-1,7.359016E-1,-2.6753485E-1,8.7584E-1,-4.07387E-1,2.691053E-1,-2.2500187E-1,-2.2500187E-1,4.4999254E-1,-2.2500187E-1,3.6933812E-1,-2.2500187E-1,2.6476267E-1,1.0614112E-1,-1.3773128E-1,1.1312558E-1,-2.2500187E-1,2.5765106E-1,2.8171617E-1,-2.2500187E-1,4.3386173E-1,-2.2500187E-1,-2.2500187E-1,4.4999254E-1,-1.9851272E-1,3.1655288E-1,-1.3107186E-3,-1.9168678E-1,3.114348E-1,-1.2159411E-1,-2.2500187E-1,3.256866E-1,2.1119055E-1,-8.483366E-2,1.301886E-1,-2.7884886E-2,-6.446939E-2,1.357908E-1,3.063414E-1,2.7564608E-2,-9.63084E-2,8.767764E-3,-2.2500187E-1,3.9978716E-1,-1.626011E-1,3.1309867E-1,1.0303045E-1,-2.2500187E-1],"categories":[],"categories_nodes":[],"categories_segments":[],"categories_sizes":[],"default_left":[0,0,0,0,0,0,0,0,0,0,0,0,0,0,0,0,0,0,0,0,0,0,0,0,0,0,0,0,0,0,0,0,0,0,0,0,0,0,0,0,0,0,0,0,0,0,0,0,0,0,0,0,0,0,0,0,0,0,0,0,0,0,0,0,0,0,0,0,0,0,0,0,0,0,0,0,0,0,0,0,0,0,0,0,0,0,0,0,0,0,0,0,0,0,0,0,0,0,0],"id":1,"left_children":[1,3,5,7,9,11,13,15,17,19,21,23,25,27,29,31,-1,33,35,-1,37,39,41,43,45,-1,47,49,51,53,55,-1,57,59,61,63,65,-1,-1,67,69,-1,71,73,75,77,79,81,-1,83,85,87,89,91,93,95,97,-1,-1,-1,-1,-1,-1,-1,-1,-1,-1,-1,-1,-1,-1,-1,-1,-1,-1,-1,-1,-1,-1,-1,-1,-1,-1,-1,-1,-1,-1,-1,-1,-1,-1,-1,-1,-1,-1,-1,-1,-1,-1],"loss_changes":[1.21264244E2,5.976805E1,4.922409E1,6.1663956E1,1.6810677E1,2.6460625E1,4.582014E1,9.42436E0,3.3273438E1,8.78828E0,2.0277744E1,2.1317078E1,2.0551538E1,3.8278305E1,5.743221E1,3.8146973E-6,0E0,1.9555346E1,3.171138E1,0E0,1.9073486E-6,1.3469269E1,1.874958E1,2.4549065E1,1.8961971E1,0E0,1.5281668E1,3.9401737E1,2.9697182E1,2.0751892E1,4.1445244E1,0E0,1.9073486E-6,9.332247E0,1.742405E1,3.6255905E1,2.636154E1,0E0,0E0,1.4907129E1,1.396225E1,0E0,1.0598593E1,9.882798E0,1.3986252E1,1.6655525E1,1.668887E1,1.25253105E1,0E0,3.9180443E1,3.8810036E1,2.5341124E1,2.4751617E1,2.148117E1,1.1928768E1,2.2332905E1,3.299858E1,0E0,0E0,0E0,0E0,0E0,0E0,0E0,0E0,0E0,0E0,0E0,0E0,0E0,0E0,0E0,0E0,0E0,0E0,0E0,0E0,0E0,0E0,0E0,0E0,0E0,0E0,0E0,0E0,0E0,0E0,0E0,0E0,0E0,0E0,0E0,0E0,0E0,0E0,0E0,0E0,0E0,0E0],"parents":[2147483647,0,0,1,1,2,2,3,3,4,4,5,5,6,6,7,7,8,8,9,9,10,10,11,11,12,12,13,13,14,14,15,15,17,17,18,18,20,20,21,21,22,22,23,23,24,24,26,26,27,27,28,28,29,29,30,30,32,32,33,33,34,34,35,35,36,36,39,39,40,40,42,42,43,43,44,44,45,45,46,46,47,47,49,49,50,50,51,51,52,52,53,53,54,54,55,55,56,56],"right_children":[2,4,6,8,10,12,14,16,18,20,22,24,26,28,30,32,-1,34,36,-1,38,40,42,44,46,-1,48,50,52,54,56,-1,58,60,62,64,66,-1,-1,68,70,-1,72,74,76,78,80,82,-1,84,86,88,90,92,94,96,98,-1,-1,-1,-1,-1,-1,-1,-1,-1,-1,-1,-1,-1,-1,-1,-1,-1,-1,-1,-1,-1,-1,-1,-1,-1,-1,-1,-1,-1,-1,-1,-1,-1,-1,-1,-1,-1,-1,-1,-1,-1,-1],"split_conditions":[5.35289E-1,9.896212E-1,-8.330831E-1,1.3001518E-1,2.8546367E-2,5.2894974E-1,1.360081E-1,1.1076815E0,2.3664206E-2,2.2293958E-1,9.783189E-1,4.6532653E-2,5.1494032E-2,4.9790537E-1,7.62526E-1,1.6329091E-2,4.4999254E-1,1.352268E-1,4.6333965E-2,-2.2500187E-1,1.2634018E-2,1.0900941E-1,8.2875025E-1,1.1065156E-1,1.5718577E0,-2.2500187E-1,9.9550545E-2,-1.5685778E0,2.6176337E-2,1.1657956E0,1.4551923E0,-2.2500187E-1,1.0653562E-1,2.4339974E-2,2.136394E-1,1.7235994E0,1.05830655E-1,4.4999254E-1,4.4999254E-1,2.1103437E0,6.020741E-1,-2.2500187E-1,3.9142355E-1,3.3775803E-1,4.0823737E-1,1.1793725E0,8.032578E-1,1.8368754E0,-2.2500187E-1,3.6872666E0,4.5241827E-1,1.0090384E0,1.1537957E-1,2.5811503E0,5.650482E-1,3.2048607E0,6.646997E-2,-2.2500187E-1,-2.2500187E-1,4.4999254E-1,-2.2500187E-1,3.6933812E-1,-2.2500187E-1,2.6476267E-1,1.0614112E-1,-1.3773128E-1,1.1312558E-1,-2.2500187E-1,2.5765106E-1,2.8171617E-1,-2.2500187E-1,4.3386173E-1,-2.2500187E-1,-2.2500187E-1,4.4999254E-1,-1.9851272E-1,3.1655288E-1,-1.3107186E-3,-1.9168678E-1,3.114348E-1,-1.2159411E-1,-2.2500187E-1,3.256866E-1,2.1119055E-1,-8.483366E-2,1.301886E-1,-2.7884886E-2,-6.446939E-2,1.357908E-1,3.063414E-1,2.7564608E-2,-9.63084E-2,8.767764E-3,-2.2500187E-1,3.9978716E-1,-1.626011E-1,3.1309867E-1,1.0303045E-1,-2.2500187E-1],"split_indices":[109,235,529,95,135,447,532,0,380,5,487,158,228,61,370,0,0,132,373,0,0,28,486,341,56,0,39,525,279,163,383,0,0,50,283,320,66,0,0,54,506,0,129,221,454,259,69,124,0,174,190,58,188,374,166,54,4,0,0,0,0,0,0,0,0,0,0,0,0,0,0,0,0,0,0,0,0,0,0,0,0,0,0,0,0,0,0,0,0,0,0,0,0,0,0,0,0,0,0],"split_type":[0,0,0,0,0,0,0,0,0,0,0,0,0,0,0,0,0,0,0,0,0,0,0,0,0,0,0,0,0,0,0,0,0,0,0,0,0,0,0,0,0,0,0,0,0,0,0,0,0,0,0,0,0,0,0,0,0,0,0,0,0,0,0,0,0,0,0,0,0,0,0,0,0,0,0,0,0,0,0,0,0,0,0,0,0,0,0,0,0,0,0,0,0,0,0,0,0,0,0],"sum_hessian":[5.7684927E3,1.0847208E3,4.683772E3,9.2419525E2,1.6052562E2,5.6988654E2,4.1138853E3,5.139857E1,8.727967E2,9.9758625E0,1.5054976E2,5.114089E2,5.8477608E1,2.1946946E3,1.9191907E3,4.9464134E1,1.9344375E0,6.099676E1,8.117999E2,2.2381124E0,7.73775E0,1.2583877E2,2.4710987E1,3.109298E2,2.004791E2,1.4299423E1,4.4178185E1,1.8311663E3,3.635284E2,1.3692352E3,5.499554E2,2.5489984E0,4.6915134E1,4.112137E1,1.9875393E1,5.313527E2,2.804472E2,1.9344375E0,5.8033123E0,2.3556202E1,1.0228257E2,8.227495E0,1.6483494E1,1.0348658E1,3.0058115E2,1.6594525E2,3.4533844E1,3.73813E1,6.7968826E0,1.9958006E2,1.6315862E3,2.2878746E2,1.3474094E2,1.3531731E3,1.6062214E1,1.1433111E2,4.356243E2,1.0651335E1,3.6263798E1,1.9344375E0,3.918693E1,1.3181692E1,6.693701E0,3.065952E2,2.2475749E2,4.4885723E1,2.355615E2,1.0029563E1,1.352664E1,5.1536922E0,9.7128876E1,1.3872585E1,2.6109078E0,2.6109078E0,7.73775E0,2.9575897E2,4.82217E0,8.7558304E1,7.838695E1,2.19068E1,1.2627046E1,4.185975E0,3.3195328E1,1.4368718E2,5.5892895E1,1.5439842E2,1.4771877E3,1.0573903E2,1.2304843E2,9.338203E1,4.1358917E1,1.1465073E3,2.0666576E2,3.5229297E0,1.2539284E1,1.0462486E2,9.706249E0,4.0601157E2,2.961271E1],"tree_param":{"num_deleted":"0","num_feature":"539","num_nodes":"99","size_leaf_vector":"1"}},{"base_weights":[8.194475E-6,-1.9069889E-1,4.5430154E-2,-2.1656007E-1,5.2888393E-1,1.7258097E-1,-2.6488644E-3,-2.956962E-1,3.237063E-2,8.5262835E-1,-6.594915E-1,7.586714E-2,3.4150898E-1,-3.240354E-1,2.1131504E-2,-8.5041076E-2,-3.6077338E-1,-1.0935736E-1,5.33703E-1,1.1446707E0,1.1733511E-1,-2.2499877E-1,-4.7983814E-2,1.7161313E-1,-1.4749917E-1,9.486308E-1,2.932751E-1,1.1446707E0,-3.4928903E-1,-6.59737E-2,9.453318E-2,-1.4751975E-1,1.0727056E0,9.17509E-2,-3.978029E-1,7.8260705E-2,-4.0594408E-1,1.1092327E0,1.3601533E-1,1.2601097E0,-2.2499879E-1,-2.9868E-1,4.500049E-1,4.0474883E-1,3.1943772E-2,-2.1384515E-1,9.146364E-1,1.2520542E0,5.3557694E-1,1.5880667E-1,5.441947E-1,4.500049E-1,1.23344816E-1,-3.754263E-1,1.1446707E0,-1.6891126E-1,5.5069387E-2,-3.1246543E-1,1.2510307E-1,-9.509033E-2,7.45766E-2,3.9911258E-1,-8.2922965E-2,-1.1777082E-1,1.664424E-1,1.6043033E-1,-1.24823295E-1,-2.30339E-2,2.7540013E-1,2.3453869E-1,-1.4549382E-1,4.500049E-1,1.5810725E-1,3.3141822E-1,-6.276132E-2,4.0616247E-1,-4.7983814E-2,1.712896E-1,-2.2499879E-1,-5.730706E-2,1.6106938E-1,-1.2992509E-1,3.5910994E-2,2.970266E-1,-7.527727E-2,2.3236161E-2,4.265068E-1,-1.06343165E-1,4.265068E-1,3.3570108E-1,-1.4097145E-1,2.5284237E-1,2.896715E-2,1.0680242E-1,2.8157976E-1,1.681069E-1,-1.252433E-1,1.23344816E-1,4.500049E-1,-6.121603E-2,8.394288E-2,-5.1539615E-2,5.2087452E-2,-1.5093519E-1,1.149092E-1,7.166654E-2,3.6105473E-4],"categories":[],"categories_nodes":[],"categories_segments":[],"categories_sizes":[],"default_left":[0,0,0,0,0,0,0,0,0,0,0,0,0,0,0,0,0,0,0,0,0,0,0,0,0,0,0,0,0,0,0,0,0,0,0,0,0,0,0,0,0,0,0,0,0,0,0,0,0,0,0,0,0,0,0,0,0,0,0,0,0,0,0,0,0,0,0,0,0,0,0,0,0,0,0,0,0,0,0,0,0,0,0,0,0,0,0,0,0,0,0,0,0,0,0,0,0,0,0,0,0,0,0,0,0,0,0],"id":2,"left_children":[1,3,5,7,9,11,13,15,17,19,21,23,25,27,29,31,33,35,37,39,41,-1,-1,43,45,47,49,51,53,55,57,59,61,63,65,67,69,71,73,75,-1,77,-1,79,81,83,85,87,89,91,93,-1,-1,95,97,99,101,103,105,-1,-1,-1,-1,-1,-1,-1,-1,-1,-1,-1,-1,-1,-1,-1,-1,-1,-1,-1,-1,-1,-1,-1,-1,-1,-1,-1,-1,-1,-1,-1,-1,-1,-1,-1,-1,-1,-1,-1,-1,-1,-1,-1,-1,-1,-1,-1,-1],"loss_changes":[4.9967663E1,2.064914E1,2.848056E1,2.1100456E1,1.4810243E1,2.08839E1,2.583635E1,1.1141808E1,1.8358297E1,6.4965076E0,3.7262106E-1,1.7384602E1,1.3628296E1,8.638393E0,2.0124886E1,1.3875264E1,1.0404678E1,1.12086E1,1.3033611E1,4.7359524E0,4.9469585E0,0E0,0E0,1.8527233E1,1.7186918E1,4.292839E0,1.4546787E1,1.0261793E0,8.940653E0,1.7935337E1,2.1253023E1,1.2215748E1,3.4142866E0,1.0533036E1,9.7816925E0,1.6063389E1,7.3267784E0,5.294222E0,1.1261678E1,2.7175827E0,0E0,2.5947418E0,0E0,1.6782803E1,1.4521129E1,1.024756E1,6.086914E0,5.3814297E0,8.509336E0,1.1952021E1,1.11651535E1,0E0,0E0,8.855091E0,1.0261793E0,1.22667675E1,1.7793198E1,1.5824042E1,2.239943E1,0E0,0E0,0E0,0E0,0E0,0E0,0E0,0E0,0E0,0E0,0E0,0E0,0E0,0E0,0E0,0E0,0E0,0E0,0E0,0E0,0E0,0E0,0E0,0E0,0E0,0E0,0E0,0E0,0E0,0E0,0E0,0E0,0E0,0E0,0E0,0E0,0E0,0E0,0E0,0E0,0E0,0E0,0E0,0E0,0E0,0E0,0E0,0E0],"parents":[2147483647,0,0,1,1,2,2,3,3,4,4,5,5,6,6,7,7,8,8,9,9,10,10,11,11,12,12,13,13,14,14,15,15,16,16,17,17,18,18,19,19,20,20,23,23,24,24,25,25,26,26,27,27,28,28,29,29,30,30,31,31,32,32,33,33,34,34,35,35,36,36,37,37,38,38,39,39,41,41,43,43,44,44,45,45,46,46,47,47,48,48,49,49,50,50,53,53,54,54,55,55,56,56,57,57,58,58],"right_children":[2,4,6,8,10,12,14,16,18,20,22,24,26,28,30,32,34,36,38,40,42,-1,-1,44,46,48,50,52,54,56,58,60,62,64,66,68,70,72,74,76,-1,78,-1,80,82,84,86,88,90,92,94,-1,-1,96,98,100,102,104,106,-1,-1,-1,-1,-1,-1,-1,-1,-1,-1,-1,-1,-1,-1,-1,-1,-1,-1,-1,-1,-1,-1,-1,-1,-1,-1,-1,-1,-1,-1,-1,-1,-1,-1,-1,-1,-1,-1,-1,-1,-1,-1,-1,-1,-1,-1,-1,-1],"split_conditions":[1.6112065E-1,1.1517909E0,-5.870031E-1,5.0718313E-1,1.0927829E0,6.004548E-1,1.2833284E-1,8.179891E-1,2.665158E0,1.9E1,5.766799E-1,1.0392561E-1,1.74304E0,4.2076203E-1,1.3655192E-3,9.634043E-2,5.146871E-1,7.226592E-1,1.0320387E-1,1.0228924E0,6.298039E-1,-2.2499877E-1,-4.7983814E-2,-6.317209E-1,3.2794386E-1,1.9727277E-2,4.666265E-3,5.174006E-1,4.7683588E-1,1.337536E-1,1.105059E-1,3.5578722E-1,2.2066168E-1,2.954864E-1,3.6146978E-1,8.645245E-2,2.7580306E-1,2.7308133E-1,1.7959422E-3,1.4303174E0,-2.2499879E-1,1.1327227E0,4.500049E-1,1.0916598E0,1.2399063E0,2.305583E-1,5.291514E-1,1.0531999E-2,8.7664075E-2,1.9664243E-2,9.3657345E-2,4.500049E-1,1.23344816E-1,-2.1379523E0,2.4629964E-1,3.0282025E0,3.1342584E-1,3.338627E-1,2.8248322E-1,-9.509033E-2,7.45766E-2,3.9911258E-1,-8.2922965E-2,-1.1777082E-1,1.664424E-1,1.6043033E-1,-1.24823295E-1,-2.30339E-2,2.7540013E-1,2.3453869E-1,-1.4549382E-1,4.500049E-1,1.5810725E-1,3.3141822E-1,-6.276132E-2,4.0616247E-1,-4.7983814E-2,1.712896E-1,-2.2499879E-1,-5.730706E-2,1.6106938E-1,-1.2992509E-1,3.5910994E-2,2.970266E-1,-7.527727E-2,2.3236161E-2,4.265068E-1,-1.06343165E-1,4.265068E-1,3.3570108E-1,-1.4097145E-1,2.5284237E-1,2.896715E-2,1.0680242E-1,2.8157976E-1,1.681069E-1,-1.252433E-1,1.23344816E-1,4.500049E-1,-6.121603E-2,8.394288E-2,-5.1539615E-2,5.2087452E-2,-1.5093519E-1,1.149092E-1,7.166654E-2,3.6105473E-4],"split_indices":[428,181,529,525,430,353,298,490,54,535,7,162,450,389,478,227,354,377,247,498,441,0,0,516,242,415,224,0,483,532,35,152,532,432,202,125,249,176,289,527,0,499,0,60,192,170,12,177,379,0,342,0,0,522,3,134,55,353,323,0,0,0,0,0,0,0,0,0,0,0,0,0,0,0,0,0,0,0,0,0,0,0,0,0,0,0,0,0,0,0,0,0,0,0,0,0,0,0,0,0,0,0,0,0,0,0,0],"split_type":[0,0,0,0,0,0,0,0,0,0,0,0,0,0,0,0,0,0,0,0,0,0,0,0,0,0,0,0,0,0,0,0,0,0,0,0,0,0,0,0,0,0,0,0,0,0,0,0,0,0,0,0,0,0,0,0,0,0,0,0,0,0,0,0,0,0,0,0,0,0,0,0,0,0,0,0,0,0,0,0,0,0,0,0,0,0,0,0,0,0,0,0,0,0,0,0,0,0,0,0,0,0,0,0,0,0,0],"sum_hessian":[5.768413E3,1.1096162E3,4.658797E3,1.0711211E3,3.8495167E1,1.2782661E3,3.3805305E3,8.127458E2,2.583753E2,3.025336E1,8.241804E0,8.1288007E2,4.653861E2,2.3290259E2,3.147628E3,1.918209E2,6.2092487E2,2.014304E2,5.694491E1,2.165319E1,8.600171E0,6.97764E0,1.2641635E0,5.689847E2,2.4389536E2,3.4252213E1,4.311339E2,3.9369435E0,2.2896564E2,1.4394471E3,1.7081808E3,1.8199919E2,9.821723E0,4.6966305E1,5.7395856E2,1.2338082E2,7.804958E1,2.3269508E1,3.36754E1,2.0409662E1,1.2435274E0,6.6110635E0,1.989108E0,2.1316698E2,3.5581772E2,2.295562E2,1.4339158E1,1.9746626E1,1.4505587E1,2.8070398E2,1.5042993E2,2.652144E0,1.2847997E0,2.250287E2,3.9369435E0,7.779026E2,6.6154456E2,1.1933881E2,1.588842E3,1.2746988E2,5.452931E1,8.246677E0,1.5750453E0,2.2956089E1,2.4010214E1,1.1031189E1,5.6292737E2,1.04151436E2,1.9229383E1,4.8695893E0,7.318E1,1.3923756E1,9.345752E0,8.847805E0,2.4827595E1,1.9145498E1,1.2641635E0,2.2587175E0,4.352346E0,3.869899E1,1.7446799E2,5.6489033E1,2.9932867E2,6.858697E0,2.226975E2,5.408808E0,8.930349E0,1.8859272E0,1.7860699E1,9.179323E0,5.326264E0,2.34153E1,2.5728867E2,1.0183856E2,4.8591373E1,9.67727E0,2.1535143E2,1.2847997E0,2.652144E0,7.214048E2,5.649778E1,2.2705374E2,4.344908E2,9.366345E1,2.5675358E1,8.2822595E2,7.606161E2],"tree_param":{"num_deleted":"0","num_feature":"539","num_nodes":"107","size_leaf_vector":"1"}},{"base_weights":[4.71633E-4,3.1246308E-2,-1.816686E-1,1.9501792E-1,-2.693978E-3,1.2269601E0,-1.954E-1,4.896656E-1,1.06863566E-1,-6.59177E-2,9.256097E-2,1.4132581E0,8.286591E-2,-3.5762256E-1,-1.05044186E-1,6.0973656E-1,-6.938454E-2,2.2090305E-1,-1.0694831E-1,9.603222E-3,-1.7863262E-1,1.410867E-1,-2.2717236E-1,1.5298121E0,1.3142602E0,-4.179262E-1,1.7519991E-1,-1.6897231E-1,2.0915423E-1,-5.3781522E-3,7.289866E-1,-4.734671E-1,7.451238E-1,2.8979275E-1,-2.07449E-1,-2.297624E-1,2.93327E-1,-2.065354E-1,6.3003406E-2,7.2094566E-1,-1.93266E-1,1.8968259E-1,-1.8315804E-1,8.1389916E-1,-2.7936202E-1,4.9730343E-1,4.351045E-1,1.2551149E0,4.2698097E-1,-4.4766E-1,7.604035E-1,8.6469096E-1,-3.3214095E-1,-1.898184E-1,1.1491765E0,3.9237E-2,9.3161666E-1,3.1506968E-1,-1.2308147E-1,5.6831166E-2,2.6295733E-1,1.5097612E-1,-1.9075117E-1,3.716652E-1,-1.5702036E-1,1.0534469E-1,-1.0069108E-1,1.473885E-1,-1.4578508E-1,-7.55549E-2,4.5162505E-1,-1.2558085E-1,1.5331961E-1,-1.5327191E-1,7.349769E-3,3.6987115E-2,-4.936908E-2,3.6507684E-1,-6.670868E-2,-1.3474357E-1,-4.7260962E-2,6.564206E-2,-8.919903E-2,-1.0784008E-1,2.758296E-2,-1.407275E-1,3.7489787E-1,3.313019E-1,-9.162888E-2,3.8220766E-1,3.6906007E-1,-1.4323305E-1,7.7577025E-2,-2.1390073E-1,4.4302607E-1,3.4889042E-1,-2.7440678E-2,-1.6654325E-1,4.545609E-1,-6.2442776E-2,3.4799975E-1,4.0935487E-1,7.725888E-2,-5.9320256E-2,1.9353606E-1,3.3181515E-1,-1.2093113E-1],"categories":[],"categories_nodes":[],"categories_segments":[],"categories_sizes":[],"default_left":[0,0,0,0,0,0,0,0,0,0,0,0,0,0,0,0,0,0,0,0,0,0,0,0,0,0,0,0,0,0,0,0,0,0,0,0,0,0,0,0,0,0,0,0,0,0,0,0,0,0,0,0,0,0,0,0,0,0,0,0,0,0,0,0,0,0,0,0,0,0,0,0,0,0,0,0,0,0,0,0,0,0,0,0,0,0,0,0,0,0,0,0,0,0,0,0,0,0,0,0,0,0,0,0,0,0,0],"id":3,"left_children":[1,3,5,7,9,11,13,15,17,19,21,23,-1,25,27,29,31,33,35,37,39,41,43,45,47,49,51,53,55,57,59,61,63,65,67,69,71,73,75,77,79,81,83,85,87,-1,-1,89,-1,91,93,95,97,99,101,103,105,-1,-1,-1,-1,-1,-1,-1,-1,-1,-1,-1,-1,-1,-1,-1,-1,-1,-1,-1,-1,-1,-1,-1,-1,-1,-1,-1,-1,-1,-1,-1,-1,-1,-1,-1,-1,-1,-1,-1,-1,-1,-1,-1,-1,-1,-1,-1,-1,-1,-1],"loss_changes":[3.215895E1,2.7280762E1,1.603989E1,2.1884258E1,2.448363E1,1.4179649E0,1.203772E1,1.3023964E1,1.5812512E1,2.0800491E1,2.5163864E1,7.723904E-2,0E0,9.4398E0,1.0594685E1,1.171582E1,1.1290443E1,1.2480265E1,1.1089172E1,1.6888033E1,1.2905458E1,2.2188316E1,1.1611843E1,3.1237602E-2,2.3336887E-2,9.246754E0,1.0448687E1,1.2043361E1,1.0947113E1,1.1085346E1,1.0649704E1,3.6362987E0,7.1248E0,1.3981026E1,1.1402512E1,6.615472E0,8.209874E0,2.0384762E1,1.6097103E1,7.3418045E0,8.819492E0,1.7369873E1,8.902151E0,5.7038493E0,7.340662E0,0E0,0E0,1.1057854E-3,0E0,5.4148216E0,6.8561544E0,3.6111908E0,7.0890408E0,1.0671958E1,1.3101501E0,1.0365658E1,3.9532614E0,0E0,0E0,0E0,0E0,0E0,0E0,0E0,0E0,0E0,0E0,0E0,0E0,0E0,0E0,0E0,0E0,0E0,0E0,0E0,0E0,0E0,0E0,0E0,0E0,0E0,0E0,0E0,0E0,0E0,0E0,0E0,0E0,0E0,0E0,0E0,0E0,0E0,0E0,0E0,0E0,0E0,0E0,0E0,0E0,0E0,0E0,0E0,0E0,0E0,0E0],"parents":[2147483647,0,0,1,1,2,2,3,3,4,4,5,5,6,6,7,7,8,8,9,9,10,10,11,11,13,13,14,14,15,15,16,16,17,17,18,18,19,19,20,20,21,21,22,22,23,23,24,24,25,25,26,26,27,27,28,28,29,29,30,30,31,31,32,32,33,33,34,34,35,35,36,36,37,37,38,38,39,39,40,40,41,41,42,42,43,43,44,44,47,47,49,49,50,50,51,51,52,52,53,53,54,54,55,55,56,56],"right_children":[2,4,6,8,10,12,14,16,18,20,22,24,-1,26,28,30,32,34,36,38,40,42,44,46,48,50,52,54,56,58,60,62,64,66,68,70,72,74,76,78,80,82,84,86,88,-1,-1,90,-1,92,94,96,98,100,102,104,106,-1,-1,-1,-1,-1,-1,-1,-1,-1,-1,-1,-1,-1,-1,-1,-1,-1,-1,-1,-1,-1,-1,-1,-1,-1,-1,-1,-1,-1,-1,-1,-1,-1,-1,-1,-1,-1,-1,-1,-1,-1,-1,-1,-1,-1,-1,-1,-1,-1,-1],"split_conditions":[4.9401283E-2,7.367326E-1,4.1931915E-1,2.532976E-1,1.5571462E-1,9.573296E-2,2.664021E-1,9.9222326E-1,9.846276E-1,3.4519266E-2,1.0459714E0,2.2015381E-1,8.286591E-2,8.4007215E-1,2.1576936E0,2.2230569E-1,3.1321934E-1,6.911457E-1,8.6614895E-1,5.9796594E-2,4.311405E-2,1.784411E0,4.1722274E-1,5.1350355E-2,9.083955E-1,6.6275847E-1,5.350208E-1,1.671586E0,5.127902E0,1.5469833E-2,3.1694192E-1,4.2582384E-1,3.0247366E-1,7.760713E-1,1.4808025E0,1.154794E0,3.0756643E-1,2.5952336E-1,5.3191155E-1,4.3068066E-2,9.517204E-2,5E1,5.3993154E-1,4.9105218E-1,3.5399648E-3,4.9730343E-1,4.351045E-1,1.2413456E0,4.2698097E-1,2.1396904E-1,6.0470206E-1,5.809784E-2,1.1501096E-1,6.874271E-1,3.546031E-1,2.8625116E0,5.047652E-2,3.1506968E-1,-1.2308147E-1,5.6831166E-2,2.6295733E-1,1.5097612E-1,-1.9075117E-1,3.716652E-1,-1.5702036E-1,1.0534469E-1,-1.0069108E-1,1.473885E-1,-1.4578508E-1,-7.55549E-2,4.5162505E-1,-1.2558085E-1,1.5331961E-1,-1.5327191E-1,7.349769E-3,3.6987115E-2,-4.936908E-2,3.6507684E-1,-6.670868E-2,-1.3474357E-1,-4.7260962E-2,6.564206E-2,-8.919903E-2,-1.0784008E-1,2.758296E-2,-1.407275E-1,3.7489787E-1,3.313019E-1,-9.162888E-2,3.8220766E-1,3.6906007E-1,-1.4323305E-1,7.7577025E-2,-2.1390073E-1,4.4302607E-1,3.4889042E-1,-2.7440678E-2,-1.6654325E-1,4.545609E-1,-6.2442776E-2,3.4799975E-1,4.0935487E-1,7.725888E-2,-5.9320256E-2,1.9353606E-1,3.3181515E-1,-1.2093113E-1],"split_indices":[279,471,128,55,310,368,40,150,430,218,110,0,0,456,419,250,238,0,226,532,393,528,534,34,22,263,56,262,105,466,268,486,399,353,300,246,69,321,253,284,196,538,202,52,265,0,0,3,0,67,21,112,433,10,451,270,148,0,0,0,0,0,0,0,0,0,0,0,0,0,0,0,0,0,0,0,0,0,0,0,0,0,0,0,0,0,0,0,0,0,0,0,0,0,0,0,0,0,0,0,0,0,0,0,0,0,0],"split_type":[0,0,0,0,0,0,0,0,0,0,0,0,0,0,0,0,0,0,0,0,0,0,0,0,0,0,0,0,0,0,0,0,0,0,0,0,0,0,0,0,0,0,0,0,0,0,0,0,0,0,0,0,0,0,0,0,0,0,0,0,0,0,0,0,0,0,0,0,0,0,0,0,0,0,0,0,0,0,0,0,0,0,0,0,0,0,0,0,0,0,0,0,0,0,0,0,0,0,0,0,0,0,0,0,0,0,0],"sum_hessian":[5.7372334E3,4.907975E3,8.2925854E2,8.4252936E2,4.0654456E3,8.005628E0,8.212529E2,1.940236E2,6.4850574E2,2.4435706E3,1.6218751E3,6.693946E0,1.3116819E0,2.937899E2,5.274631E2,1.5971956E2,3.4304047E1,4.2293018E2,2.2557558E2,1.4632008E3,9.803696E2,1.4081595E3,2.1371552E2,3.074369E0,3.6195767E0,2.6392E2,2.9869864E1,4.382873E2,8.917577E1,2.5936115E1,1.3378345E2,2.2928886E1,1.137516E1,3.6433588E2,5.8594296E1,1.7261359E2,5.2962E1,2.898848E2,1.173316E3,1.5692341E1,9.646773E2,1.2246206E3,1.8353891E2,1.0202267E1,2.0351324E2,1.1783218E0,1.896047E0,2.3464584E0,1.2731184E0,2.5742422E2,6.4958034E0,1.266193E1,1.7207932E1,4.3146384E2,6.8234544E0,7.219589E1,1.6979881E1,7.1902328E0,1.8745882E1,2.8727238E1,1.05056206E2,3.2683659E0,1.966052E1,8.188047E0,3.1871128E0,3.3178674E2,3.254912E1,1.6698555E1,4.189574E1,1.7044398E2,2.1695964E0,1.2404276E1,4.0557728E1,1.2508914E2,1.6479564E2,9.2758154E2,2.4573457E2,1.0284765E1,5.4075756E0,1.18197426E2,8.4647986E2,1.1555186E3,6.910214E1,1.11853455E2,7.1685455E1,2.5866127E0,7.615654E0,3.7630913E0,1.9975015E2,1.333966E0,1.0124923E0,2.4700757E2,1.0416637E1,2.1250172E0,4.370786E0,9.651206E0,3.0107245E0,1.5354415E1,1.8535172E0,4.2568503E2,5.7788043E0,5.496103E0,1.3273518E0,5.1897785E1,2.0298105E1,1.5017282E1,1.9625999E0],"tree_param":{"num_deleted":"0","num_feature":"539","num_nodes":"107","size_leaf_vector":"1"}},{"base_weights":[-1.237913E-3,1.7155853E-1,-8.059256E-2,3.2283437E-1,5.329625E-3,-1.7137766E-1,1.49465185E-2,-2.4011904E-1,4.0247655E-1,-3.5229176E-2,7.9780346E-1,-2.0375876E-1,3.2029128E-1,-1.7735219E-1,1.16289936E-1,-6.067009E-1,2.2738272E-1,-7.3632205E-1,4.3229228E-1,4.7046393E-2,-4.5854887E-1,1.0347134E0,-7.2917134E-1,-2.2339052E-1,4.823845E-1,-1.1365458E-1,8.4983987E-1,-2.471614E-1,6.1573523E-1,-1.18051596E-1,2.2235116E-1,-7.344307E-1,1.1550795E0,-7.5083977E-1,5.384436E-1,-7.8021604E-1,-7.251723E-1,4.725397E-1,-3.3817276E-1,-4.542173E-1,1.3188568E-1,1.1314837E0,-5.418198E-1,1.2372816E0,-7.342379E-1,-2.0871907E-1,-7.487176E-1,-6.332266E-1,-1.9373031E-1,1.2304798E0,-4.5329265E-2,-6.234883E-1,4.6678427E-1,-7.390103E-1,1.0238402E0,-4.780929E-1,-8.56293E-2,-7.305483E-1,8.5878134E-1,-4.797763E-1,3.9405208E-2,3.712953E-1,-6.1246227E-2,-2.2306818E-1,-2.125887E-1,3.9238924E-1,3.068795E-1,-2.3932567E-1,-2.193817E-1,-2.1745367E-1,2.2254007E-1,-2.4568836E-1,-2.1876977E-1,-2.1195829E-1,-2.2439936E-1,1.1634165E-1,2.3779015E-1,1.6557455E-1,-2.2617088E-1,3.580805E-2,-2.0735064E-1,5.62608E-2,-1.9117548E-1,2.8112695E-1,3.7344038E-1,-1.9986577E-1,2.0294468E-1,4.0154698E-1,-2.2355728E-1,-2.171293E-1,-2.2456802E-1,-2.2857936E-1,-2.1738496E-1,3.8641757E-1,-2.103775E-1,5.0480566E-3,-7.5016804E-2,-2.2498383E-1,4.0593773E-1,2.7632186E-1,-1.5483499E-1,-2.2158091E-1,3.86713E-1,-2.1924478E-1,3.2196623E-1,-2.314778E-1,-2.1490106E-1,-2.2132438E-1,3.3817333E-1,-1.7385809E-1,7.9888314E-2,4.2313185E-2,-1.0379855E-1,-2.4176553E-1,-2.1598326E-1,-2.2560354E-1,3.0635396E-1,-1.9414467E-1,9.5255405E-2,-3.728574E-2,1.6018122E-1,1.5468244E-1,2.5729365E-3,-4.9405675E-2,2.059664E-1],"categories":[],"categories_nodes":[],"categories_segments":[],"categories_sizes":[],"default_left":[0,0,0,0,0,0,0,0,0,0,0,0,0,0,0,0,0,0,0,0,0,0,0,0,0,0,0,0,0,0,0,0,0,0,0,0,0,0,0,0,0,0,0,0,0,0,0,0,0,0,0,0,0,0,0,0,0,0,0,0,0,0,0,0,0,0,0,0,0,0,0,0,0,0,0,0,0,0,0,0,0,0,0,0,0,0,0,0,0,0,0,0,0,0,0,0,0,0,0,0,0,0,0,0,0,0,0,0,0,0,0,0,0,0,0,0,0,0,0,0,0,0,0,0,0],"id":4,"left_children":[1,3,5,7,9,11,13,15,17,19,21,23,25,27,29,31,33,35,37,39,41,43,45,47,49,51,53,55,57,59,61,63,65,67,69,71,73,75,77,79,81,83,85,87,89,-1,91,93,95,97,99,101,103,105,107,109,111,113,115,117,119,121,123,-1,-1,-1,-1,-1,-1,-1,-1,-1,-1,-1,-1,-1,-1,-1,-1,-1,-1,-1,-1,-1,-1,-1,-1,-1,-1,-1,-1,-1,-1,-1,-1,-1,-1,-1,-1,-1,-1,-1,-1,-1,-1,-1,-1,-1,-1,-1,-1,-1,-1,-1,-1,-1,-1,-1,-1,-1,-1,-1,-1,-1,-1],"loss_changes":[7.8575226E1,4.534884E1,3.4060272E1,4.233132E1,2.7617186E1,3.2057423E1,3.7288055E1,2.005422E1,2.8084946E1,2.8468967E1,1.5133791E1,2.544709E1,2.8590677E1,3.656021E1,3.1143093E1,1.4759422E1,1.5649339E1,1.0328293E-2,2.499469E1,2.9104563E1,1.7611635E1,1.2977207E1,3.6725998E-3,2.2325294E1,2.0744955E1,2.0236002E1,1.5491825E1,2.2640152E1,1.748051E1,2.2236122E1,3.6436584E1,1.4404297E-2,8.957577E-2,1.1390209E-2,1.0024512E1,8.444548E-3,7.160187E-3,2.0776825E1,1.480718E1,1.34639435E1,2.5053112E1,1.4581299E-1,1.9156002E1,6.5197678E0,5.581379E-4,0E0,1.1292696E-3,1.6200745E1,2.0311607E1,5.2793503E0,1.4018804E1,8.014941E0,2.3223639E1,4.086256E-3,9.199821E0,1.8861645E1,2.1076836E1,6.5259933E-3,1.18378525E1,1.5800272E1,2.2019009E1,2.9604752E1,2.2976261E1,0E0,0E0,0E0,0E0,0E0,0E0,0E0,0E0,0E0,0E0,0E0,0E0,0E0,0E0,0E0,0E0,0E0,0E0,0E0,0E0,0E0,0E0,0E0,0E0,0E0,0E0,0E0,0E0,0E0,0E0,0E0,0E0,0E0,0E0,0E0,0E0,0E0,0E0,0E0,0E0,0E0,0E0,0E0,0E0,0E0,0E0,0E0,0E0,0E0,0E0,0E0,0E0,0E0,0E0,0E0,0E0,0E0,0E0,0E0,0E0,0E0,0E0],"parents":[2147483647,0,0,1,1,2,2,3,3,4,4,5,5,6,6,7,7,8,8,9,9,10,10,11,11,12,12,13,13,14,14,15,15,16,16,17,17,18,18,19,19,20,20,21,21,22,22,23,23,24,24,25,25,26,26,27,27,28,28,29,29,30,30,31,31,32,32,33,33,34,34,35,35,36,36,37,37,38,38,39,39,40,40,41,41,42,42,43,43,44,44,46,46,47,47,48,48,49,49,50,50,51,51,52,52,53,53,54,54,55,55,56,56,57,57,58,58,59,59,60,60,61,61,62,62],"right_children":[2,4,6,8,10,12,14,16,18,20,22,24,26,28,30,32,34,36,38,40,42,44,46,48,50,52,54,56,58,60,62,64,66,68,70,72,74,76,78,80,82,84,86,88,90,-1,92,94,96,98,100,102,104,106,108,110,112,114,116,118,120,122,124,-1,-1,-1,-1,-1,-1,-1,-1,-1,-1,-1,-1,-1,-1,-1,-1,-1,-1,-1,-1,-1,-1,-1,-1,-1,-1,-1,-1,-1,-1,-1,-1,-1,-1,-1,-1,-1,-1,-1,-1,-1,-1,-1,-1,-1,-1,-1,-1,-1,-1,-1,-1,-1,-1,-1,-1,-1,-1,-1,-1,-1,-1],"split_conditions":[1.284669E0,1.393268E0,1.4140523E-2,7.519911E-1,3.6495665E-1,2E1,1.3435347E-1,1.0446297E0,2.1405151E-1,8.7332964E-1,2.534671E-1,2.8862646E-1,1.5427028E0,6.833351E-1,-1.217769E0,9.4835585E-1,1.7838742E-1,4.7335722E-3,1.0897269E0,3.092248E-1,2.746177E-1,1.0900463E0,5.375075E-1,4.3719015E-1,4.5018613E-2,1.3307557E0,3.9778548E-1,2.3803146E-1,1.1319412E0,1.3361438E-2,4.9881345E-1,5.261729E-1,1.5604292E-1,4.519199E-1,1.5032146E-2,5.2074176E-1,1.3928493E0,4.27948E-1,5.9786947E-3,2.3137498E0,9.2891884E-1,2.7512142E-1,5.4774034E-1,5.525229E-1,5.0024295E-1,-2.0871907E-1,3.6139953E-1,-2.6665056E0,4.9649004E-2,1.0580416E0,3.7225407E-2,1.866654E0,8.0222655E-3,1.4652894E-1,-1.4452109E0,3.1163638E0,-6.436083E-1,4.0854067E-3,4.0693235E-1,9.464325E-1,6.2924296E-1,1.0509981E0,6.73121E-1,-2.2306818E-1,-2.125887E-1,3.9238924E-1,3.068795E-1,-2.3932567E-1,-2.193817E-1,-2.1745367E-1,2.2254007E-1,-2.4568836E-1,-2.1876977E-1,-2.1195829E-1,-2.2439936E-1,1.1634165E-1,2.3779015E-1,1.6557455E-1,-2.2617088E-1,3.580805E-2,-2.0735064E-1,5.62608E-2,-1.9117548E-1,2.8112695E-1,3.7344038E-1,-1.9986577E-1,2.0294468E-1,4.0154698E-1,-2.2355728E-1,-2.171293E-1,-2.2456802E-1,-2.2857936E-1,-2.1738496E-1,3.8641757E-1,-2.103775E-1,5.0480566E-3,-7.5016804E-2,-2.2498383E-1,4.0593773E-1,2.7632186E-1,-1.5483499E-1,-2.2158091E-1,3.86713E-1,-2.1924478E-1,3.2196623E-1,-2.314778E-1,-2.1490106E-1,-2.2132438E-1,3.3817333E-1,-1.7385809E-1,7.9888314E-2,4.2313185E-2,-1.0379855E-1,-2.4176553E-1,-2.1598326E-1,-2.2560354E-1,3.0635396E-1,-1.9414467E-1,9.5255405E-2,-3.728574E-2,1.6018122E-1,1.5468244E-1,2.5729365E-3,-4.9405675E-2,2.059664E-1],"split_indices":[416,484,279,471,493,537,143,480,290,172,366,162,41,57,512,154,24,461,321,234,437,256,480,12,19,357,452,390,398,218,321,188,0,533,227,109,272,160,260,438,421,5,261,5,129,0,220,514,107,58,184,24,427,352,518,124,514,4,52,503,208,172,217,0,0,0,0,0,0,0,0,0,0,0,0,0,0,0,0,0,0,0,0,0,0,0,0,0,0,0,0,0,0,0,0,0,0,0,0,0,0,0,0,0,0,0,0,0,0,0,0,0,0,0,0,0,0,0,0,0,0,0,0,0,0],"split_type":[0,0,0,0,0,0,0,0,0,0,0,0,0,0,0,0,0,0,0,0,0,0,0,0,0,0,0,0,0,0,0,0,0,0,0,0,0,0,0,0,0,0,0,0,0,0,0,0,0,0,0,0,0,0,0,0,0,0,0,0,0,0,0,0,0,0,0,0,0,0,0,0,0,0,0,0,0,0,0,0,0,0,0,0,0,0,0,0,0,0,0,0,0,0,0,0,0,0,0,0,0,0,0,0,0,0,0,0,0,0,0,0,0,0,0,0,0,0,0,0,0,0,0,0,0],"sum_hessian":[5.730315E3,1.8033916E3,3.9269236E3,9.4416156E2,8.5923E2,2.0135586E3,1.913365E3,1.1701771E2,8.2714386E2,8.173957E2,4.18343E1,1.8891406E3,1.2441796E2,6.603512E2,1.2530137E3,6.5588135E1,5.1429577E1,2.110355E1,8.060403E2,6.843808E2,1.3301488E2,3.6215473E1,5.618825E0,1.8365925E3,5.25481E1,6.838167E1,5.60363E1,6.0692816E2,5.3423077E1,3.9040863E2,8.626051E2,6.115441E1,4.433721E0,1.2408234E1,3.9021343E1,4.274788E0,1.6828762E1,7.6602484E2,4.0015472E1,9.906514E1,5.853157E2,6.6194057E0,1.2639548E2,3.2494434E1,3.7210407E0,2.0726984E0,3.5461268E0,1.2394581E2,1.7126467E3,2.1735504E1,3.0812595E1,3.6405003E1,3.1976664E1,5.5310054E0,5.0505295E1,2.4980246E2,3.5712567E2,8.169653E0,4.525342E1,1.1840271E2,2.7200592E2,5.6557007E2,2.9703497E2,4.5170895E1,1.5983518E1,2.0555782E0,2.3781428E0,3.6521902E0,8.756043E0,5.410473E0,3.361087E1,2.4289196E0,1.8458681E0,9.2627E0,7.566063E0,6.056889E2,1.603359E2,1.273963E1,2.7275843E1,2.896088E1,7.010426E1,5.4582306E2,3.9492603E1,2.4376578E0,4.181748E0,1.1468511E2,1.1710363E1,3.0916119E1,1.5783155E0,2.149292E0,1.5717487E0,2.2904017E0,1.2557251E0,4.2387643E0,1.1970705E2,3.6145456E2,1.3511921E3,1.2675589E0,2.0467945E1,1.0093437E1,2.071916E1,3.4338196E1,2.0668046E0,1.0749124E1,2.122754E1,2.2695735E0,3.2614317E0,2.8002577E0,4.7705036E1,2.1984521E2,2.9957245E1,1.9091554E2,1.6621013E2,1.0080466E0,7.1616063E0,4.1445518E0,4.110887E1,9.785949E1,2.054322E1,2.0436182E2,6.764411E1,4.045959E2,1.6097421E2,2.6094046E2,3.609452E1],"tree_param":{"num_deleted":"0","num_feature":"539","num_nodes":"125","size_leaf_vector":"1"}},{"base_weights":[7.646086E-4,-1.577488E-1,3.717108E-2,-1.7551458E-1,6.9612634E-1,6.445389E-2,-1.1060621E-1,-2.0440045E-1,3.727181E-1,-1.7075858E-1,1.2851466E0,-8.278438E-2,1.0573345E-1,-1.4207113E-1,6.063606E-1,-2.2684246E-1,4.2421257E-1,-2.1720098E-1,8.016528E-1,-6.198881E-1,8.4818155E-1,1.2489806E-1,1.4335082E0,8.6674196E-1,-1.0496164E-1,1.840413E-2,1.7462286E-1,3.991892E-1,-1.8427011E-1,-4.997607E-1,8.6334366E-1,-2.3889321E-1,7.6551735E-1,6.83053E-1,-6.9088775E-1,1.0642128E0,-6.9261384E-1,1.1990436E0,2.677066E-1,-7.4151784E-1,-4.0875632E-2,9.0012446E-2,4.1436452E-1,1.5137669E0,1.2355795E0,1.1900536E0,-3.8341594E-1,3.3201107E-1,-1.4312989E-1,2.0053251E-1,-3.3434346E-2,2.0465009E-1,-2.027526E-1,6.181088E-1,-6.6397756E-1,-2.5831884E-1,9.567084E-2,-7.5037205E-1,2.0621856E-1,1.0988405E0,-2.3794824E-1,1.4098178E-1,-7.630391E-2,3.045115E-1,-2.3561555E-1,2.1904176E-2,2.7291867E-1,-2.2395526E-1,-2.0338035E-1,-6.0153674E-2,4.2099956E-1,-1.1026469E-1,-2.2273107E-1,2.5215296E-2,3.946804E-1,-2.1922486E-1,1.8208963E-1,-2.277515E-1,-2.1914968E-1,4.410725E-1,5.2592885E-1,3.3956033E-1,4.3885568E-1,-1.02352776E-1,4.18895E-1,-2.2899014E-1,1.4745228E-1,1.9493261E-1,-1.2826201E-1,2.2650501E-1,-4.852752E-2,1.6318926E-1,1.3895437E-2,2.4900933E-1,-1.5451369E-2,5.5380054E-2,2.1441473E-1,3.2685736E-1,-8.27185E-2,8.294332E-3,3.1178614E-1,-2.2589798E-1,-4.0175613E-2,-8.555296E-2,1.5844992E-1,-3.9182827E-2,1.2977986E-1,-2.3366092E-1,-2.1891163E-1,-2.3012793E-1,3.665342E-1,3.2759237E-1,-2.2873645E-1],"categories":[],"categories_nodes":[],"categories_segments":[],"categories_sizes":[],"default_left":[0,0,0,0,0,0,0,0,0,0,0,0,0,0,0,0,0,0,0,0,0,0,0,0,0,0,0,0,0,0,0,0,0,0,0,0,0,0,0,0,0,0,0,0,0,0,0,0,0,0,0,0,0,0,0,0,0,0,0,0,0,0,0,0,0,0,0,0,0,0,0,0,0,0,0,0,0,0,0,0,0,0,0,0,0,0,0,0,0,0,0,0,0,0,0,0,0,0,0,0,0,0,0,0,0,0,0,0,0,0,0,0,0],"id":5,"left_children":[1,3,5,7,9,11,13,15,17,19,21,23,25,27,29,31,33,35,37,39,41,-1,43,45,47,49,51,53,55,57,59,61,63,65,67,69,71,73,75,77,-1,-1,-1,79,81,83,85,87,89,91,93,95,97,99,101,103,105,107,-1,109,111,-1,-1,-1,-1,-1,-1,-1,-1,-1,-1,-1,-1,-1,-1,-1,-1,-1,-1,-1,-1,-1,-1,-1,-1,-1,-1,-1,-1,-1,-1,-1,-1,-1,-1,-1,-1,-1,-1,-1,-1,-1,-1,-1,-1,-1,-1,-1,-1,-1,-1,-1,-1],"loss_changes":[3.3116848E1,1.6259438E1,1.8815292E1,1.6627766E1,1.1154889E1,2.3943655E1,1.6407476E1,1.4071117E1,1.3298039E1,4.044743E0,1.6766891E0,1.8164873E1,1.8510395E1,1.5913705E1,8.691559E0,1.1516815E1,9.923702E0,1.3478566E1,6.456541E0,3.6085367E-1,7.900264E-1,0E0,1.764965E-1,7.9575195E0,1.4058762E1,1.2810093E1,1.949031E1,1.1728447E1,1.3398085E1,1.7150404E0,6.435047E0,1.0422375E1,4.471399E0,3.8586588E0,4.667282E-3,2.5678725E0,2.6136303E-1,2.267191E0,4.398005E0,9.536743E-4,0E0,0E0,0E0,8.234596E-2,7.5555325E-2,4.9403744E0,1.3445472E0,1.6343021E1,1.2970232E1,1.5921558E1,1.6479877E1,1.629364E1,1.1955151E1,1.039192E1,4.0598726E-1,1.0796753E1,1.0307899E1,2.8030872E-3,0E0,4.689146E0,3.0490456E0,0E0,0E0,0E0,0E0,0E0,0E0,0E0,0E0,0E0,0E0,0E0,0E0,0E0,0E0,0E0,0E0,0E0,0E0,0E0,0E0,0E0,0E0,0E0,0E0,0E0,0E0,0E0,0E0,0E0,0E0,0E0,0E0,0E0,0E0,0E0,0E0,0E0,0E0,0E0,0E0,0E0,0E0,0E0,0E0,0E0,0E0,0E0,0E0,0E0,0E0,0E0,0E0],"parents":[2147483647,0,0,1,1,2,2,3,3,4,4,5,5,6,6,7,7,8,8,9,9,10,10,11,11,12,12,13,13,14,14,15,15,16,16,17,17,18,18,19,19,20,20,22,22,23,23,24,24,25,25,26,26,27,27,28,28,29,29,30,30,31,31,32,32,33,33,34,34,35,35,36,36,37,37,38,38,39,39,43,43,44,44,45,45,46,46,47,47,48,48,49,49,50,50,51,51,52,52,53,53,54,54,55,55,56,56,57,57,59,59,60,60],"right_children":[2,4,6,8,10,12,14,16,18,20,22,24,26,28,30,32,34,36,38,40,42,-1,44,46,48,50,52,54,56,58,60,62,64,66,68,70,72,74,76,78,-1,-1,-1,80,82,84,86,88,90,92,94,96,98,100,102,104,106,108,-1,110,112,-1,-1,-1,-1,-1,-1,-1,-1,-1,-1,-1,-1,-1,-1,-1,-1,-1,-1,-1,-1,-1,-1,-1,-1,-1,-1,-1,-1,-1,-1,-1,-1,-1,-1,-1,-1,-1,-1,-1,-1,-1,-1,-1,-1,-1,-1,-1,-1,-1,-1,-1,-1],"split_conditions":[1.6112065E-1,1.3070267E0,2.8779912E-1,3.8652205E-1,5.258915E-1,1.6668405E-1,5.0746286E-1,1.1626947E0,4.3486517E-2,1.5649658E-1,2.3255788E-1,-1.4496365E-2,1.3215207E-3,3.5679778E-1,5.5432224E-1,2.393459E0,4.7399727E-1,2.817323E-1,6.9029935E-2,7.366276E-1,5.0440412E-2,1.2489806E-1,4.9757812E-2,9.062233E-1,-1.3451445E0,-1.607543E0,2.7542424E-1,2.1249188E-1,3.4160236E-1,3.9036256E-1,9.531442E-1,3.021416E-2,3.347972E-1,3.7949488E-2,6.195073E-1,2.122125E-2,1.4210254E-1,1.4542248E0,1.0025165E0,9.118436E-5,-4.0875632E-2,9.0012446E-2,4.1436452E-1,1.8896317E-2,2.1272456E-2,5.2083623E-2,3.5955593E-1,1.172246E0,8.1181146E-2,8.382217E-2,-1.1413214E0,2.1413255E0,3.9817866E-2,5.516223E-1,2.7858472E-1,1.2234717E-1,1.6506216E-1,4.724405E-1,2.0621856E-1,1.9223642E-1,4.379758E-2,1.4098178E-1,-7.630391E-2,3.045115E-1,-2.3561555E-1,2.1904176E-2,2.7291867E-1,-2.2395526E-1,-2.0338035E-1,-6.0153674E-2,4.2099956E-1,-1.1026469E-1,-2.2273107E-1,2.5215296E-2,3.946804E-1,-2.1922486E-1,1.8208963E-1,-2.277515E-1,-2.1914968E-1,4.410725E-1,5.2592885E-1,3.3956033E-1,4.3885568E-1,-1.02352776E-1,4.18895E-1,-2.2899014E-1,1.4745228E-1,1.9493261E-1,-1.2826201E-1,2.2650501E-1,-4.852752E-2,1.6318926E-1,1.3895437E-2,2.4900933E-1,-1.5451369E-2,5.5380054E-2,2.1441473E-1,3.2685736E-1,-8.27185E-2,8.294332E-3,3.1178614E-1,-2.2589798E-1,-4.0175613E-2,-8.555296E-2,1.5844992E-1,-3.9182827E-2,1.2977986E-1,-2.3366092E-1,-2.1891163E-1,-2.3012793E-1,3.665342E-1,3.2759237E-1,-2.2873645E-1],"split_indices":[428,401,307,368,290,316,196,181,45,338,7,531,478,256,236,520,247,176,229,255,112,0,415,23,515,519,130,14,28,33,175,189,131,412,3,70,35,419,58,230,0,0,0,34,94,95,33,511,93,173,529,514,417,392,32,466,372,1,0,449,242,0,0,0,0,0,0,0,0,0,0,0,0,0,0,0,0,0,0,0,0,0,0,0,0,0,0,0,0,0,0,0,0,0,0,0,0,0,0,0,0,0,0,0,0,0,0,0,0,0,0,0,0],"split_type":[0,0,0,0,0,0,0,0,0,0,0,0,0,0,0,0,0,0,0,0,0,0,0,0,0,0,0,0,0,0,0,0,0,0,0,0,0,0,0,0,0,0,0,0,0,0,0,0,0,0,0,0,0,0,0,0,0,0,0,0,0,0,0,0,0,0,0,0,0,0,0,0,0,0,0,0,0,0,0,0,0,0,0,0,0,0,0,0,0,0,0,0,0,0,0,0,0,0,0,0,0,0,0,0,0,0,0,0,0,0,0,0,0],"sum_hessian":[5.7385786E3,1.0718322E3,4.6667466E3,1.0499861E3,2.184608E1,3.9394421E3,7.2730426E2,9.974324E2,5.2553783E1,8.83834E0,1.300774E1,8.6261566E2,3.0768267E3,6.9672754E2,3.0576694E1,9.6305066E2,3.4381718E1,2.2125002E1,3.0428783E1,6.134409E0,2.7039313E0,1.8972511E0,1.1110489E1,1.9687542E1,8.429281E2,1.3568207E3,1.7200059E3,5.0391174E1,6.4633636E2,5.764556E0,2.481214E1,9.514961E2,1.155452E1,2.790445E1,6.477266E0,5.9872217E0,1.613778E1,1.744517E1,1.2983613E1,4.9016833E0,1.2327255E0,1.3330753E0,1.3708559E0,7.9050474E0,3.2054415E0,1.5642208E1,4.0453343E0,6.771273E1,7.752154E2,3.006217E2,1.056199E3,1.5932345E3,1.2677136E2,4.178675E1,8.6044235E0,5.111336E2,1.3520276E2,4.7597594E0,1.0047963E0,2.0441082E1,4.371058E0,2.0300817E1,9.311953E2,9.9531765E0,1.6013423E0,7.5596414E0,2.0344809E1,1.223361E0,5.253905E0,1.2659464E0,4.7212753E0,2.1447291E0,1.3993051E1,1.651064E0,1.5794106E1,3.2927833E0,9.690829E0,1.8837134E0,3.0179698E0,6.6886263E0,1.216421E0,2.2010388E0,1.0044025E0,1.8569353E0,1.3785273E1,2.8206375E0,1.2246971E0,4.7740227E1,1.9972504E1,1.5752071E1,7.594633E2,9.3158966E1,2.0746272E2,2.1650564E1,1.0345483E3,1.5329756E3,6.0258965E1,6.776201E0,1.1999516E2,1.7397182E1,2.4389568E1,7.3672085E0,1.2372155E0,4.942553E2,1.6878317E1,8.088239E1,5.4320366E1,2.0008075E0,2.7589521E0,1.2635437E0,1.9177538E1,1.2363095E0,3.1347485E0],"tree_param":{"num_deleted":"0","num_feature":"539","num_nodes":"113","size_leaf_vector":"1"}},{"base_weights":[9.220149E-4,2.5921443E-2,-1.5207866E-1,6.9594145E-2,-5.5112243E-2,7.88246E-1,-1.6734092E-1,-2.538764E-1,8.83969E-2,-1.0119623E-1,1.7611068E-1,1.1975935E0,-3.1272975E-1,4.723883E-1,-1.9136097E-1,5.5079085E-1,-3.136829E-1,1.4991634E-1,-1.2144595E-2,1.6896972E-2,-1.6598704E-1,4.9868903E-1,3.656063E-2,5.0381105E-2,1.3685873E0,-2.0607914E-1,1.3174531E-1,9.5458555E-1,-2.5440997E-1,-3.1115395E-1,-8.8227905E-2,9.085292E-1,-2.1078789E-1,-3.5021427E-1,1.0956559E0,1.6324845E-1,-4.8632732E-1,-3.0083933E-1,3.2541376E-2,-4.6589386E-2,3.399031E-1,4.189375E-1,-1.8954223E-1,8.1482637E-1,-5.199135E-3,1.3784105E-1,-4.3512538E-1,1.5948197E0,1.182823E0,1.1019434E0,-2.3673476E-1,-5.90306E-1,4.2388484E-1,-3.734975E-1,7.689292E-2,-1.4137712E-1,3.2793862E-1,3.4924418E-1,-1.755399E-2,-1.1943144E-1,1.7638493E-1,4.4390357E-1,8.187903E-2,7.112434E-2,1.0025969E-2,2.863063E-1,-1.7410278E-1,1.7682199E-1,-1.1421097E-1,3.5721175E-2,-3.801421E-2,-2.0728221E-2,2.7004433E-1,5.357371E-2,2.7597737E-1,2.6012343E-1,1.4378865E-2,3.305845E-1,-5.949026E-2,3.5704648E-1,1.5117161E-1,-6.2593214E-2,3.2637787E-1,5.070421E-3,1.5293764E-1,4.0567902E-1,-1.6210261E-1,4.2755407E-1,5.1866406E-1,3.2052547E-1,4.1390324E-1,3.6485976E-1,-5.749177E-2,-2.1903431E-1,1.765458E-1,3.4872255E-1,-1.16486914E-1,1.844175E-1,-1.13512956E-1,2.0933284E-1,-5.1289663E-2,2.598527E-1,3.5199353E-3],"categories":[],"categories_nodes":[],"categories_segments":[],"categories_sizes":[],"default_left":[0,0,0,0,0,0,0,0,0,0,0,0,0,0,0,0,0,0,0,0,0,0,0,0,0,0,0,0,0,0,0,0,0,0,0,0,0,0,0,0,0,0,0,0,0,0,0,0,0,0,0,0,0,0,0,0,0,0,0,0,0,0,0,0,0,0,0,0,0,0,0,0,0,0,0,0,0,0,0,0,0,0,0,0,0,0,0,0,0,0,0,0,0,0,0,0,0,0,0,0,0,0,0],"id":6,"left_children":[1,3,5,7,9,11,13,15,17,19,21,23,25,27,29,31,33,35,37,39,41,43,45,-1,47,-1,-1,49,51,53,55,57,-1,59,61,63,65,67,69,71,73,75,77,79,81,83,85,87,89,91,-1,93,-1,95,97,99,101,-1,-1,-1,-1,-1,-1,-1,-1,-1,-1,-1,-1,-1,-1,-1,-1,-1,-1,-1,-1,-1,-1,-1,-1,-1,-1,-1,-1,-1,-1,-1,-1,-1,-1,-1,-1,-1,-1,-1,-1,-1,-1,-1,-1,-1,-1],"loss_changes":[2.1790731E1,1.7329945E1,1.1482988E1,1.9353275E1,1.8273586E1,5.7593927E0,1.2098618E1,8.412243E0,1.860021E1,1.094086E1,1.2829136E1,1.6401653E0,9.745018E-1,9.985601E0,9.375345E0,5.4225636E0,8.377075E0,1.5825207E1,1.4726659E1,1.0388239E1,1.2721798E1,1.3709114E1,9.503492E0,0E0,3.3574295E-1,0E0,0E0,4.4011917E0,6.3645797E0,8.493187E0,9.019709E0,2.3256211E0,0E0,7.1256695E0,1.2988515E0,1.751619E1,5.1863585E0,1.0878909E1,1.3622268E1,9.020336E0,7.7863407E0,5.942921E0,1.0040218E1,6.1711807E0,7.378443E0,7.3668714E0,6.613091E0,8.191967E-2,9.879589E-2,2.334341E0,0E0,1.5588303E0,0E0,6.872074E0,1.1899059E1,8.978288E0,7.8596516E0,0E0,0E0,0E0,0E0,0E0,0E0,0E0,0E0,0E0,0E0,0E0,0E0,0E0,0E0,0E0,0E0,0E0,0E0,0E0,0E0,0E0,0E0,0E0,0E0,0E0,0E0,0E0,0E0,0E0,0E0,0E0,0E0,0E0,0E0,0E0,0E0,0E0,0E0,0E0,0E0,0E0,0E0,0E0,0E0,0E0,0E0],"parents":[2147483647,0,0,1,1,2,2,3,3,4,4,5,5,6,6,7,7,8,8,9,9,10,10,11,11,12,12,13,13,14,14,15,15,16,16,17,17,18,18,19,19,20,20,21,21,22,22,24,24,27,27,28,28,29,29,30,30,31,31,33,33,34,34,35,35,36,36,37,37,38,38,39,39,40,40,41,41,42,42,43,43,44,44,45,45,46,46,47,47,48,48,49,49,51,51,53,53,54,54,55,55,56,56],"right_children":[2,4,6,8,10,12,14,16,18,20,22,24,26,28,30,32,34,36,38,40,42,44,46,-1,48,-1,-1,50,52,54,56,58,-1,60,62,64,66,68,70,72,74,76,78,80,82,84,86,88,90,92,-1,94,-1,96,98,100,102,-1,-1,-1,-1,-1,-1,-1,-1,-1,-1,-1,-1,-1,-1,-1,-1,-1,-1,-1,-1,-1,-1,-1,-1,-1,-1,-1,-1,-1,-1,-1,-1,-1,-1,-1,-1,-1,-1,-1,-1,-1,-1,-1,-1,-1,-1],"split_conditions":[4.9401283E-2,2.616801E-1,1.0119579E-1,2.8548625E-1,1.0409722E0,7.202889E-1,2.2373055E-1,7.1396166E-1,6.555855E-1,1.08895125E-2,1.1982266E-1,2.167937E-2,8.946327E-1,2.9550345E0,5.457678E-1,8.073177E-2,4.495995E-1,3.1211367E-1,9E0,2.9892486E-1,4.337929E-1,1.0261679E0,1.8336804E-1,5.0381105E-2,1.3437579E0,-2.0607914E-1,1.3174531E-1,3.5293058E-1,3.641293E-1,1.1737431E0,1.226611E0,3.0000773E-1,-2.1078789E-1,1.2850014E0,4.4377407E-1,6.4942695E-2,3.200128E-2,1.7753425E-1,2.26375E0,4.4159237E-2,1.2323548E0,-2.3956347E-1,2.1192808E0,2.150563E-1,3.0729663E-1,6.6044986E-1,5.8677137E-1,1.228474E-1,3.085551E-1,1.0208555E0,-2.3673476E-1,1.1004281E-1,4.2388484E-1,1.5073624E-1,1.482309E0,7.7209756E-2,4.2954493E0,3.4924418E-1,-1.755399E-2,-1.1943144E-1,1.7638493E-1,4.4390357E-1,8.187903E-2,7.112434E-2,1.0025969E-2,2.863063E-1,-1.7410278E-1,1.7682199E-1,-1.1421097E-1,3.5721175E-2,-3.801421E-2,-2.0728221E-2,2.7004433E-1,5.357371E-2,2.7597737E-1,2.6012343E-1,1.4378865E-2,3.305845E-1,-5.949026E-2,3.5704648E-1,1.5117161E-1,-6.2593214E-2,3.2637787E-1,5.070421E-3,1.5293764E-1,4.0567902E-1,-1.6210261E-1,4.2755407E-1,5.1866406E-1,3.2052547E-1,4.1390324E-1,3.6485976E-1,-5.749177E-2,-2.1903431E-1,1.765458E-1,3.4872255E-1,-1.16486914E-1,1.844175E-1,-1.13512956E-1,2.0933284E-1,-5.1289663E-2,2.598527E-1,3.5199353E-3],"split_indices":[279,50,409,315,481,201,191,271,370,101,447,333,3,448,155,493,261,532,537,252,251,304,20,0,41,0,0,219,222,490,190,77,0,110,56,289,78,488,344,478,215,520,438,239,252,476,277,64,1,269,0,146,0,239,387,393,105,0,0,0,0,0,0,0,0,0,0,0,0,0,0,0,0,0,0,0,0,0,0,0,0,0,0,0,0,0,0,0,0,0,0,0,0,0,0,0,0,0,0,0,0,0,0],"split_type":[0,0,0,0,0,0,0,0,0,0,0,0,0,0,0,0,0,0,0,0,0,0,0,0,0,0,0,0,0,0,0,0,0,0,0,0,0,0,0,0,0,0,0,0,0,0,0,0,0,0,0,0,0,0,0,0,0,0,0,0,0,0,0,0,0,0,0,0,0,0,0,0,0,0,0,0,0,0,0,0,0,0,0,0,0,0,0,0,0,0,0,0,0,0,0,0,0,0,0,0,0,0,0],"sum_hessian":[5.6970283E3,4.896903E3,8.0012573E2,3.1819868E3,1.714916E3,1.2779294E1,7.8734644E2,1.7480215E2,3.0071848E3,1.4299243E3,2.8499167E2,9.315683E0,3.4636106E0,2.8492832E1,7.588536E2,1.2093266E1,1.6270888E2,1.8656367E3,1.141548E3,5.0658316E2,9.233411E2,8.605964E1,1.9893204E2,1.326718E0,7.988965E0,2.3126411E0,1.1509695E0,1.7128717E1,1.1364116E1,3.510711E2,4.0778247E2,9.408096E0,2.6851692E0,1.5859789E2,4.111002E0,1.8273458E3,3.8290943E1,1.5301178E2,9.885362E2,4.2337036E2,8.32128E1,3.5743946E1,8.8759717E2,5.2881813E1,3.317783E1,1.6376782E2,3.5164227E1,3.6021261E0,4.386839E0,1.5793988E1,1.3347291E0,9.458637E0,1.9054792E0,3.0247546E2,4.8595654E1,3.616018E2,4.6180676E1,7.441173E0,1.966923E0,1.5089513E2,7.7027526E0,2.802761E0,1.3082412E0,1.1648838E3,6.62462E2,2.3456962E0,3.5945244E1,1.2596627E1,1.4041515E2,6.405191E2,3.4801712E2,4.135402E2,9.8301735E0,6.510487E1,1.8107924E1,1.6189114E1,1.9554834E1,5.9789553E0,8.816182E2,2.3959309E1,2.8922506E1,2.7971893E1,5.205935E0,1.2358442E2,4.0183395E1,1.9549038E0,3.320932E1,1.5900644E0,2.0120616E0,2.7744355E0,1.6124036E0,1.4512197E1,1.281791E0,8.455758E0,1.0028787E0,2.8853319E0,2.9959012E2,2.22778E1,2.6317856E1,1.2315772E1,3.49286E2,1.7090187E1,2.9090488E1],"tree_param":{"num_deleted":"0","num_feature":"539","num_nodes":"103","size_leaf_vector":"1"}},{"base_weights":[-2.5793593E-3,1.2986676E-1,-7.759423E-2,4.34354E-1,5.345825E-2,-2.2955981E-1,-2.5449317E-2,6.598061E-1,2.0679598E-1,-3.1931767E-1,1.090945E-1,-3.213955E-1,9.529574E-2,1.706316E-2,-2.9501346E-1,7.085515E-1,-7.4847466E-1,-1.2816581E-1,5.461817E-1,-3.1809974E-2,-6.060814E-1,7.679381E-1,8.2810014E-2,-3.7049913E-1,4.620443E-1,2.9972568E-1,-3.9183703E-1,-1.08032405E-1,1.248925E-1,-4.3498254E-1,7.198646E-2,7.602856E-1,-7.066136E-1,-2.664384E-1,-7.2348624E-1,3.5018656E-1,-5.9381324E-1,6.890171E-1,-7.758724E-1,-5.257582E-1,2.608782E-1,-6.839086E-1,5.7416624E-1,9.631765E-1,-2.9658195E-1,-3.3168617E-1,1.3139595E-1,3.5947403E-1,-4.2430875E-1,-4.351052E-1,9.305278E-1,4.385481E-1,-7.423891E-1,-5.86169E-1,1.2634555E0,-1.4031295E-1,6.735581E-1,1.8174529E-1,-3.1884494E-1,-5.92627E-1,2.2293452E-2,4.4642717E-1,-5.9411645E-1,2.4101853E-1,-2.1825854E-1,-2.047835E-1,-2.2472687E-1,-2.0856233E-1,-2.3083012E-1,-2.2567353E-1,1.8562111E-1,2.0617436E-1,-2.2313133E-1,2.4601199E-1,-1.115572E-1,-2.6405126E-1,-2.2450542E-1,-2.1737863E-1,1.7418733E-1,-2.1680395E-1,1.6451079E-1,-2.183261E-1,5.063395E-1,4.3207917E-1,-2.1411921E-1,-2.1585958E-1,3.1721833E-1,-2.2716904E-1,3.1218886E-1,-1.6106588E-1,8.650473E-2,5.448053E-2,-8.701986E-2,2.3037541E-1,-2.1428068E-1,1.0514141E-1,-1.4422068E-1,-2.1754669E-1,4.1309068E-1,-2.1398076E-1,3.4555537E-1,1.7084907E-1,-2.2240494E-1,-2.1689229E-1,-2.4403968E-1,-1.9909665E-1,4.4630083E-1,4.4913593E-1,2.686246E-1,-6.649438E-2,5.6899097E-2,-2.1284275E-1,2.503166E-1,3.731872E-2,1.9057477E-1,-1.2492753E-1,3.19847E-1,1.23571664E-1,-1.956699E-1,-2.1519668E-1,1.2512635E-1,-9.720468E-2,2.5405145E-1,-2.1355057E-1,4.5980433E-1],"categories":[],"categories_nodes":[],"categories_segments":[],"categories_sizes":[],"default_left":[0,0,0,0,0,0,0,0,0,0,0,0,0,0,0,0,0,0,0,0,0,0,0,0,0,0,0,0,0,0,0,0,0,0,0,0,0,0,0,0,0,0,0,0,0,0,0,0,0,0,0,0,0,0,0,0,0,0,0,0,0,0,0,0,0,0,0,0,0,0,0,0,0,0,0,0,0,0,0,0,0,0,0,0,0,0,0,0,0,0,0,0,0,0,0,0,0,0,0,0,0,0,0,0,0,0,0,0,0,0,0,0,0,0,0,0,0,0,0,0,0,0,0,0,0],"id":7,"left_children":[1,3,5,7,9,11,13,15,17,19,21,23,25,27,29,31,33,35,37,39,41,43,45,47,49,51,53,55,57,59,61,63,65,-1,67,69,71,73,75,77,79,81,83,85,87,89,91,93,95,97,99,101,103,105,107,109,111,113,115,117,119,121,123,-1,-1,-1,-1,-1,-1,-1,-1,-1,-1,-1,-1,-1,-1,-1,-1,-1,-1,-1,-1,-1,-1,-1,-1,-1,-1,-1,-1,-1,-1,-1,-1,-1,-1,-1,-1,-1,-1,-1,-1,-1,-1,-1,-1,-1,-1,-1,-1,-1,-1,-1,-1,-1,-1,-1,-1,-1,-1,-1,-1,-1,-1],"loss_changes":[5.634411E1,4.7707172E1,2.868943E1,2.1103523E1,3.3997074E1,2.7593895E1,3.0890371E1,1.418457E1,2.3272533E1,1.7551147E1,2.470038E1,2.774002E1,2.03002E1,3.1406849E1,1.8862438E1,1.4621712E1,2.4123907E-2,2.2949318E1,1.920222E1,1.5368287E1,9.7896805E0,1.1372833E1,2.7622536E1,2.665342E1,1.7875298E1,2.0773006E1,1.9383862E1,2.7194857E1,3.1546364E1,1.916203E1,2.5285696E1,1.2357857E1,7.180929E-3,0E0,7.6186657E-3,1.5046223E1,1.00295105E1,1.2756199E1,2.8460503E-2,8.7010765E0,1.8874289E1,1.0397106E1,7.3542237E0,7.3309135E0,5.2239246E0,1.8309597E1,2.59781E1,2.043069E1,2.7628746E1,7.6683846E0,1.0164837E1,1.9577572E1,2.3291588E-2,8.665892E0,5.444641E-1,2.7781181E1,9.5093975E0,2.8828777E1,1.9193428E1,1.1835808E1,1.9898535E1,2.0020638E1,9.133664E0,0E0,0E0,0E0,0E0,0E0,0E0,0E0,0E0,0E0,0E0,0E0,0E0,0E0,0E0,0E0,0E0,0E0,0E0,0E0,0E0,0E0,0E0,0E0,0E0,0E0,0E0,0E0,0E0,0E0,0E0,0E0,0E0,0E0,0E0,0E0,0E0,0E0,0E0,0E0,0E0,0E0,0E0,0E0,0E0,0E0,0E0,0E0,0E0,0E0,0E0,0E0,0E0,0E0,0E0,0E0,0E0,0E0,0E0,0E0,0E0,0E0,0E0],"parents":[2147483647,0,0,1,1,2,2,3,3,4,4,5,5,6,6,7,7,8,8,9,9,10,10,11,11,12,12,13,13,14,14,15,15,16,16,17,17,18,18,19,19,20,20,21,21,22,22,23,23,24,24,25,25,26,26,27,27,28,28,29,29,30,30,31,31,32,32,34,34,35,35,36,36,37,37,38,38,39,39,40,40,41,41,42,42,43,43,44,44,45,45,46,46,47,47,48,48,49,49,50,50,51,51,52,52,53,53,54,54,55,55,56,56,57,57,58,58,59,59,60,60,61,61,62,62],"right_children":[2,4,6,8,10,12,14,16,18,20,22,24,26,28,30,32,34,36,38,40,42,44,46,48,50,52,54,56,58,60,62,64,66,-1,68,70,72,74,76,78,80,82,84,86,88,90,92,94,96,98,100,102,104,106,108,110,112,114,116,118,120,122,124,-1,-1,-1,-1,-1,-1,-1,-1,-1,-1,-1,-1,-1,-1,-1,-1,-1,-1,-1,-1,-1,-1,-1,-1,-1,-1,-1,-1,-1,-1,-1,-1,-1,-1,-1,-1,-1,-1,-1,-1,-1,-1,-1,-1,-1,-1,-1,-1,-1,-1,-1,-1,-1,-1,-1,-1,-1,-1,-1,-1,-1,-1],"split_conditions":[1.6595387E0,-1.2667542E0,5.8299243E-2,3.0267113E-1,5.3415585E-1,2.996513E-1,2.4994457E0,5.896034E-1,4.8165494E-1,2.799635E-1,1.46334395E-2,1.2205218E0,2.8518116E-1,1.4140523E-2,8.3536156E-2,8.746145E-1,5.376098E-1,1.8450603E0,1.8481392E0,8.1025594E-1,6.429268E-1,5.744134E-2,2.637148E-1,-2.0079882E0,9.5243865E-1,4.1802573E-1,5.982928E-1,2.8006136E-1,1.942511E0,7.773846E-2,9.10349E-1,1.4296402E0,9.646079E-2,-2.664384E-1,3.3937913E-1,6.7318305E-3,2.2785774E-1,-8.259588E-1,8.790688E-2,7.7558666E-1,-1.1291318E0,1.9450922E0,5.1968795E-1,1.5562235E-1,4.6244842E-1,9.934878E-1,4.0656504E-1,4.6709704E-1,5.9399486E-2,5.367461E-2,1.0399818E0,2.56483E-1,2.3124158E-1,5.742462E-1,1.8427443E-3,1.0031773E0,1.17211066E-1,9.6831095E-1,5.027154E-1,3.3416194E-1,1.0797005E-1,9.896606E-2,3.5908112E-1,2.4101853E-1,-2.1825854E-1,-2.047835E-1,-2.2472687E-1,-2.0856233E-1,-2.3083012E-1,-2.2567353E-1,1.8562111E-1,2.0617436E-1,-2.2313133E-1,2.4601199E-1,-1.115572E-1,-2.6405126E-1,-2.2450542E-1,-2.1737863E-1,1.7418733E-1,-2.1680395E-1,1.6451079E-1,-2.183261E-1,5.063395E-1,4.3207917E-1,-2.1411921E-1,-2.1585958E-1,3.1721833E-1,-2.2716904E-1,3.1218886E-1,-1.6106588E-1,8.650473E-2,5.448053E-2,-8.701986E-2,2.3037541E-1,-2.1428068E-1,1.0514141E-1,-1.4422068E-1,-2.1754669E-1,4.1309068E-1,-2.1398076E-1,3.4555537E-1,1.7084907E-1,-2.2240494E-1,-2.1689229E-1,-2.4403968E-1,-1.9909665E-1,4.4630083E-1,4.4913593E-1,2.686246E-1,-6.649438E-2,5.6899097E-2,-2.1284275E-1,2.503166E-1,3.731872E-2,1.9057477E-1,-1.2492753E-1,3.19847E-1,1.23571664E-1,-1.956699E-1,-2.1519668E-1,1.2512635E-1,-9.720468E-2,2.5405145E-1,-2.1355057E-1,4.5980433E-1],"split_indices":[465,525,314,216,255,307,68,66,534,93,228,288,238,279,382,384,8,124,147,23,329,127,221,521,172,274,247,162,513,366,508,498,201,0,457,388,11,521,365,82,518,351,23,31,9,446,206,411,502,36,455,380,460,57,4,510,330,3,493,8,14,49,14,0,0,0,0,0,0,0,0,0,0,0,0,0,0,0,0,0,0,0,0,0,0,0,0,0,0,0,0,0,0,0,0,0,0,0,0,0,0,0,0,0,0,0,0,0,0,0,0,0,0,0,0,0,0,0,0,0,0,0,0,0,0],"split_type":[0,0,0,0,0,0,0,0,0,0,0,0,0,0,0,0,0,0,0,0,0,0,0,0,0,0,0,0,0,0,0,0,0,0,0,0,0,0,0,0,0,0,0,0,0,0,0,0,0,0,0,0,0,0,0,0,0,0,0,0,0,0,0,0,0,0,0,0,0,0,0,0,0,0,0,0,0,0,0,0,0,0,0,0,0,0,0,0,0,0,0,0,0,0,0,0,0,0,0,0,0,0,0,0,0,0,0,0,0,0,0,0,0,0,0,0,0,0,0,0,0,0,0,0,0],"sum_hessian":[5.67103E3,2.0505618E3,3.620468E3,4.113471E2,1.6392146E3,9.249353E2,2.6955327E3,2.0662968E2,2.0471742E2,2.1287851E2,1.426336E3,7.2108636E2,2.0384892E2,2.3283352E3,3.6719757E2,1.997168E2,6.9128857E0,1.0303022E2,1.016872E2,1.0630137E2,1.0657715E2,5.4720432E1,1.3716156E3,6.7855646E2,4.252988E1,1.4359E2,6.0258923E1,1.0778704E3,1.2504648E3,2.65818E2,1.0137959E2,1.9267326E2,7.043544E0,1.0492014E0,5.863684E0,5.082179E1,5.2208435E1,9.1772095E1,9.915106E0,3.955214E1,6.674923E1,9.998406E1,6.593088E0,4.6239815E1,8.4806185E0,1.4390802E2,1.2277076E3,4.6585445E1,6.31971E2,1.45899725E1,2.7939909E1,1.267106E2,1.6879398E1,5.392778E1,6.331141E0,1.0351188E3,4.2751553E1,1.1084476E3,1.4201717E2,1.976714E2,6.814658E1,6.489804E1,3.6481552E1,1.8724774E2,5.425513E0,4.5004573E0,2.5430865E0,3.6297438E0,2.2339404E0,9.955064E0,4.0866722E1,5.470971E0,4.673746E1,8.1683784E1,1.0088317E1,2.0700555E0,7.84505E0,3.3526764E1,6.025373E0,1.5097614E1,5.1651615E1,9.8169235E1,1.814827E0,3.9420795E0,2.6510086E0,2.4517705E0,4.3788044E1,6.3077116E0,2.1729066E0,1.08124374E2,3.578365E1,1.0970266E3,1.3068103E2,3.3747967E1,1.2837479E1,4.2901615E1,5.890694E2,1.2576853E1,2.0131195E0,3.3154726E0,2.4624437E1,1.1405267E2,1.26579275E1,1.32579365E1,3.621462E0,5.198541E1,1.9423718E0,3.8725233E0,2.458618E0,8.3042883E2,2.0468996E2,4.4535985E0,3.8297955E1,9.8401086E2,1.244368E2,1.3266992E2,9.347245E0,1.1072252E1,1.8659915E2,2.371619E1,4.443039E1,2.2193966E1,4.2704075E1,3.4568195E1,1.913358E0],"tree_param":{"num_deleted":"0","num_feature":"539","num_nodes":"125","size_leaf_vector":"1"}},{"base_weights":[1.6445535E-3,3.6634367E-2,-1.3036114E-1,9.156874E-2,-5.7772696E-2,-1.830482E-1,2.35833E-1,4.5704044E-2,2.752885E-1,-1.2862115E-1,6.456145E-2,-2.1969093E-1,1.7964822E-1,9.1758415E-2,8.439285E-1,1.5622272E-1,-3.338148E-2,1.3983776E-1,6.576443E-1,-2.7979162E-1,-1.9427544E-2,2.1606134E-1,-2.3445217E-1,-3.5417423E-1,-1.2180683E-1,5.575299E-1,-1.901517E-1,-1.450523E-1,4.6317324E-1,1.0503098E0,-5.4899585E-1,2.3057452E-1,-5.322003E-2,-8.968223E-2,1.6342069E-1,2.7754447E-1,-1.6319196E-1,-4.2529342E-1,7.3265356E-1,6.169058E-1,-3.0443105E-1,7.5210553E-1,-5.16869E-2,4.5272925E-1,6.864636E-2,1.1006339E0,-2.884581E-1,-3.6978984E-1,1.5507749E0,4.7604758E-1,-1.5967265E-1,7.23399E-1,-3.418244E-1,6.419109E-1,-3.8124433E-1,-2.4641266E-1,8.0347985E-1,6.9876534E-1,-4.514054E-1,2.8400842E-2,1.2329438E0,-7.681985E-1,-2.4327181E-2,1.1220117E-1,2.9714013E-2,-2.6695063E-2,3.8503033E-1,-1.0821934E-1,-1.0892648E-2,1.3416778E-1,-2.375651E-2,1.2834075E-1,-3.290412E-2,3.7787718E-1,-6.613197E-2,3.13241E-1,-2.1532492E-1,3.8440634E-2,2.5831467E-1,-1.5250112E-2,3.4890866E-1,-9.952053E-2,1.3661684E-1,2.833701E-1,-2.2690608E-1,-6.9881245E-2,1.8013073E-2,-6.7848034E-2,1.886595E-1,2.90013E-1,4.44644E-3,4.3067384E-1,-2.2541688E-1,-1.0864097E-1,2.0328772E-1,-1.19689174E-1,1.3240826E-1,4.3181324E-1,5.2063704E-1,3.4544554E-1,4.5800887E-2,3.5173342E-1,-5.483051E-2,-9.310748E-2,2.636046E-1,4.3138963E-1,-1.8765016E-1,-1.0915681E-1,4.081879E-1,-1.3878725E-1,4.3026882E-1,2.146699E-1,-9.996634E-2,-6.655821E-2,4.4146755E-1,-8.278878E-2,2.7003586E-1,3.0130675E-1,-2.2670968E-1,-2.216223E-1,4.121079E-1,-4.008296E-2,3.948291E-1,-2.2276069E-1,-2.37723E-1],"categories":[],"categories_nodes":[],"categories_segments":[],"categories_sizes":[],"default_left":[0,0,0,0,0,0,0,0,0,0,0,0,0,0,0,0,0,0,0,0,0,0,0,0,0,0,0,0,0,0,0,0,0,0,0,0,0,0,0,0,0,0,0,0,0,0,0,0,0,0,0,0,0,0,0,0,0,0,0,0,0,0,0,0,0,0,0,0,0,0,0,0,0,0,0,0,0,0,0,0,0,0,0,0,0,0,0,0,0,0,0,0,0,0,0,0,0,0,0,0,0,0,0,0,0,0,0,0,0,0,0,0,0,0,0,0,0,0,0,0,0,0,0,0,0],"id":8,"left_children":[1,3,5,7,9,11,13,15,17,19,21,23,25,27,29,31,33,35,37,39,41,43,45,47,49,51,53,55,57,59,61,63,65,67,69,71,73,75,77,79,81,83,85,87,89,91,93,95,97,99,101,103,105,107,109,111,113,115,117,119,121,123,-1,-1,-1,-1,-1,-1,-1,-1,-1,-1,-1,-1,-1,-1,-1,-1,-1,-1,-1,-1,-1,-1,-1,-1,-1,-1,-1,-1,-1,-1,-1,-1,-1,-1,-1,-1,-1,-1,-1,-1,-1,-1,-1,-1,-1,-1,-1,-1,-1,-1,-1,-1,-1,-1,-1,-1,-1,-1,-1,-1,-1,-1,-1],"loss_changes":[2.6330061E1,2.3369751E1,2.3044628E1,2.4002916E1,1.4366378E1,1.3877335E1,1.3162145E1,1.992396E1,2.9472343E1,1.7326591E1,2.7538157E1,1.2484089E1,1.3388859E1,1.0682768E1,8.272493E0,1.48063755E1,1.4722269E1,1.7535015E1,1.2091995E1,9.726173E0,1.5168589E1,1.4076538E1,1.4739635E1,1.1883808E1,1.2425453E1,7.069147E0,7.6994543E0,7.1307964E0,1.0189237E1,4.6776657E0,3.8087392E-1,1.3237595E1,1.1908E1,1.4946378E1,2.0350502E1,1.6810204E1,1.0694004E1,4.14396E0,1.0805702E1,4.2931404E0,8.888535E0,7.101074E0,1.1846679E1,1.851731E1,1.2017645E1,4.93023E0,1.3985226E1,9.377037E0,6.682539E-2,7.1407914E0,1.5880813E1,6.422497E0,3.7255201E0,6.537573E0,5.818099E0,5.5956764E0,4.904974E0,7.380108E0,4.2908278E0,3.9218097E0,2.4161797E0,1.5711784E-3,0E0,0E0,0E0,0E0,0E0,0E0,0E0,0E0,0E0,0E0,0E0,0E0,0E0,0E0,0E0,0E0,0E0,0E0,0E0,0E0,0E0,0E0,0E0,0E0,0E0,0E0,0E0,0E0,0E0,0E0,0E0,0E0,0E0,0E0,0E0,0E0,0E0,0E0,0E0,0E0,0E0,0E0,0E0,0E0,0E0,0E0,0E0,0E0,0E0,0E0,0E0,0E0,0E0,0E0,0E0,0E0,0E0,0E0,0E0,0E0,0E0,0E0,0E0],"parents":[2147483647,0,0,1,1,2,2,3,3,4,4,5,5,6,6,7,7,8,8,9,9,10,10,11,11,12,12,13,13,14,14,15,15,16,16,17,17,18,18,19,19,20,20,21,21,22,22,23,23,24,24,25,25,26,26,27,27,28,28,29,29,30,30,31,31,32,32,33,33,34,34,35,35,36,36,37,37,38,38,39,39,40,40,41,41,42,42,43,43,44,44,45,45,46,46,47,47,48,48,49,49,50,50,51,51,52,52,53,53,54,54,55,55,56,56,57,57,58,58,59,59,60,60,61,61],"right_children":[2,4,6,8,10,12,14,16,18,20,22,24,26,28,30,32,34,36,38,40,42,44,46,48,50,52,54,56,58,60,62,64,66,68,70,72,74,76,78,80,82,84,86,88,90,92,94,96,98,100,102,104,106,108,110,112,114,116,118,120,122,124,-1,-1,-1,-1,-1,-1,-1,-1,-1,-1,-1,-1,-1,-1,-1,-1,-1,-1,-1,-1,-1,-1,-1,-1,-1,-1,-1,-1,-1,-1,-1,-1,-1,-1,-1,-1,-1,-1,-1,-1,-1,-1,-1,-1,-1,-1,-1,-1,-1,-1,-1,-1,-1,-1,-1,-1,-1,-1,-1,-1,-1,-1,-1],"split_conditions":[1.3568753E0,5.9774184E-1,9.56561E-1,1.3886493E0,4.8859954E-1,6.3839996E-1,7.3034716E-1,2.4536867E-1,4.808836E-1,2.4946791E-1,1.3219274E0,1.5562257E0,1.1575562E-1,4.4225314E-1,1.6364248E0,4.7122428E-1,4.3047574E-1,1.4584632E0,1.5840024E-2,2.3712967E-1,1.4711348E-2,5.219638E-4,-1.3781612E0,5.337453E-1,7.463908E-1,2.6746225E-1,3.0573156E-1,1.5662411E-2,3.8423854E-1,2.0426467E-1,7.4905837E-1,1.4032096E-1,5.3171825E-1,3.0381091E-2,1.2922861E-2,1.9E1,9.8422885E-2,4.021024E-1,3.5425734E-2,2.3365532E-1,1.2768208E0,8.425408E-1,2.1510184E-1,3.0480307E-2,5.620333E-4,8.949398E-1,5.0060713E-1,3.722856E0,8.5419886E-2,6.127556E-3,4.8192088E-2,1.3609815E-1,1.2357069E0,5.5365276E-2,1.0393848E0,9.3878984E-1,1.3156458E0,1.8116753E0,-1.2126465E0,6.856373E-1,2.2264853E-1,5.434808E-1,-2.4327181E-2,1.1220117E-1,2.9714013E-2,-2.6695063E-2,3.8503033E-1,-1.0821934E-1,-1.0892648E-2,1.3416778E-1,-2.375651E-2,1.2834075E-1,-3.290412E-2,3.7787718E-1,-6.613197E-2,3.13241E-1,-2.1532492E-1,3.8440634E-2,2.5831467E-1,-1.5250112E-2,3.4890866E-1,-9.952053E-2,1.3661684E-1,2.833701E-1,-2.2690608E-1,-6.9881245E-2,1.8013073E-2,-6.7848034E-2,1.886595E-1,2.90013E-1,4.44644E-3,4.3067384E-1,-2.2541688E-1,-1.0864097E-1,2.0328772E-1,-1.19689174E-1,1.3240826E-1,4.3181324E-1,5.2063704E-1,3.4544554E-1,4.5800887E-2,3.5173342E-1,-5.483051E-2,-9.310748E-2,2.636046E-1,4.3138963E-1,-1.8765016E-1,-1.0915681E-1,4.081879E-1,-1.3878725E-1,4.3026882E-1,2.146699E-1,-9.996634E-2,-6.655821E-2,4.4146755E-1,-8.278878E-2,2.7003586E-1,3.0130675E-1,-2.2670968E-1,-2.216223E-1,4.121079E-1,-4.008296E-2,3.948291E-1,-2.2276069E-1,-2.37723E-1],"split_indices":[524,246,439,519,141,208,467,113,533,5,518,513,454,463,522,217,266,499,14,400,485,203,513,533,416,0,212,474,83,5,163,267,473,223,34,535,451,172,342,263,315,150,31,263,466,159,417,507,78,165,159,160,161,382,16,426,519,308,528,7,231,35,0,0,0,0,0,0,0,0,0,0,0,0,0,0,0,0,0,0,0,0,0,0,0,0,0,0,0,0,0,0,0,0,0,0,0,0,0,0,0,0,0,0,0,0,0,0,0,0,0,0,0,0,0,0,0,0,0,0,0,0,0,0,0],"split_type":[0,0,0,0,0,0,0,0,0,0,0,0,0,0,0,0,0,0,0,0,0,0,0,0,0,0,0,0,0,0,0,0,0,0,0,0,0,0,0,0,0,0,0,0,0,0,0,0,0,0,0,0,0,0,0,0,0,0,0,0,0,0,0,0,0,0,0,0,0,0,0,0,0,0,0,0,0,0,0,0,0,0,0,0,0,0,0,0,0,0,0,0,0,0,0,0,0,0,0,0,0,0,0,0,0,0,0,0,0,0,0,0,0,0,0,0,0,0,0,0,0,0,0,0,0],"sum_hessian":[5.7005605E3,4.506148E3,1.1944127E3,2.848588E3,1.65756E3,1.044179E3,1.5023373E2,2.2795178E3,5.6906995E2,1.0496608E3,6.0789923E2,9.4836676E2,9.58122E1,1.21457184E2,2.8776554E1,9.508063E2,1.3287115E3,4.202094E2,1.4886052E2,4.4021524E2,6.0944556E2,4.0347324E2,2.0442598E2,3.9949673E2,5.4887E2,4.7388275E1,4.8423923E1,7.4168205E1,4.7288975E1,2.5063105E1,3.7134492E0,7.01703E2,2.4910329E2,1.0331501E3,2.955614E2,2.889163E2,1.3129312E2,9.642856E0,1.3921767E2,1.1772738E1,4.284425E2,2.4459452E1,5.849861E2,1.548572E2,2.4861604E2,7.947792E0,1.9647818E2,3.9624854E2,3.248204E0,3.2692696E1,5.161773E2,4.000931E1,7.3789663E0,9.044038E0,3.9379887E1,6.7007744E1,7.1604633E0,3.7602665E1,9.686307E0,3.8000932E0,2.126301E1,2.5287766E0,1.1846726E0,3.3566486E2,3.6603812E2,2.4261195E2,6.4913235E0,1.699721E2,8.631781E2,1.3621567E2,1.5934573E2,2.0814723E2,8.0769066E1,5.0784497E0,1.2621467E2,1.6006219E0,8.042233E0,2.438882E1,1.1482884E2,5.2966156E0,6.476123E0,4.1358057E2,1.4861949E1,2.1691832E1,2.7676196E0,2.2308875E2,3.6189734E2,3.190069E1,1.22956505E2,1.4058088E1,2.3455795E2,6.7305465E0,1.2172453E0,1.8255557E2,1.392261E1,3.8249176E2,1.3756788E1,2.0260923E0,1.2221118E0,1.0584635E1,2.2108063E1,8.796758E0,5.0738052E2,5.225027E0,3.4784283E1,1.0144273E0,6.3645387E0,3.7692983E0,5.2747393E0,3.769039E1,1.6894966E0,5.5462513E0,6.1461494E1,2.8249075E0,4.335556E0,6.437861E0,3.1164804E1,1.6746528E0,8.011655E0,2.4200687E0,1.3800244E0,1.2196168E0,2.0043394E1,1.2275922E0,1.3011844E0],"tree_param":{"num_deleted":"0","num_feature":"539","num_nodes":"125","size_leaf_vector":"1"}},{"base_weights":[1.9247987E-3,-6.0805656E-2,4.7221243E-2,1.4001462E-1,-1.0842372E-1,-3.8871042E-2,1.1909436E-1,6.552556E-1,4.8340697E-2,-1.3948146E-1,1.6993405E-1,6.001448E-2,-1.307794E-1,5.1241696E-1,8.974039E-2,1.8392482E-1,9.3728346E-1,4.721769E-1,-1.9852784E-2,2.4656545E-1,-1.6304587E-1,-1.0103442E-1,4.561254E-1,2.9020497E-1,-1.5996926E-2,3.7441462E-1,-1.6183762E-1,6.640881E-1,-1.6863275E-1,1.607215E-1,-5.9706204E-2,1.396453E0,-2.7421258E-2,1.0502867E0,-3.3472964E-1,-1.10872835E-2,8.875773E-1,-8.459151E-2,5.000489E-1,6.734756E-1,-4.518096E-2,-2.6429573E-1,-8.927354E-2,-3.046521E-1,3.8195682E-1,6.777405E-1,2.6207967E-2,5.3936857E-1,6.295045E-2,1.9299701E-1,-1.2532027E-1,-3.425679E-1,6.843475E-1,-1.9871685E-1,2.4815291E-1,1.2500429E-1,8.723003E-1,4.373909E-1,-6.845225E-1,6.696899E-2,3.1913325E-1,8.9285366E-2,-2.5639454E-1,5.2085865E-1,3.751893E-1,-1.1743808E-1,1.4969021E-1,3.294084E-1,-2.2952096E-1,1.24752216E-1,-2.2218607E-1,3.089774E-1,-8.346071E-2,3.1067884E-1,-9.7578265E-2,5.913083E-2,-6.107348E-2,2.0378694E-1,-2.1363023E-1,-1.011515E-1,2.7776033E-1,3.183167E-1,-6.1703697E-2,2.0081282E-1,-8.510501E-2,1.292614E-2,-6.8023145E-2,3.3128104E-1,-1.1243951E-1,3.1392533E-1,-3.0047877E-2,2.4015342E-1,-5.6241333E-2,2.9210025E-1,-8.4315196E-2,2.0930138E-1,-8.646433E-2,-4.717104E-2,1.3046128E-1,-2.4211053E-2,1.2125104E-1,1.3017505E-1,-5.1395874E-2,1.665281E-1,-2.171077E-1,-2.4099646E-2,3.283944E-1,-9.274263E-2,-1.9636897E-2,3.0749583E-1,-3.7910892E-3,2.792899E-1,-1.0756563E-1,2.725386E-1,-1.2879805E-1,-2.439235E-1,2.6574874E-1,-5.8699176E-2,-2.1846746E-1,-4.703569E-3,1.4309798E-1,1.3661191E-1,8.985358E-3,-1.8312706E-1,4.278639E-2,3.8748655E-1,-8.363592E-2],"categories":[],"categories_nodes":[],"categories_segments":[],"categories_sizes":[],"default_left":[0,0,0,0,0,0,0,0,0,0,0,0,0,0,0,0,0,0,0,0,0,0,0,0,0,0,0,0,0,0,0,0,0,0,0,0,0,0,0,0,0,0,0,0,0,0,0,0,0,0,0,0,0,0,0,0,0,0,0,0,0,0,0,0,0,0,0,0,0,0,0,0,0,0,0,0,0,0,0,0,0,0,0,0,0,0,0,0,0,0,0,0,0,0,0,0,0,0,0,0,0,0,0,0,0,0,0,0,0,0,0,0,0,0,0,0,0,0,0,0,0,0,0,0,0,0,0],"id":9,"left_children":[1,3,5,7,9,11,13,15,17,19,21,23,25,27,29,31,33,35,37,39,41,43,45,47,49,51,53,55,57,59,61,63,65,67,69,71,73,75,77,79,81,83,85,87,89,91,93,95,97,99,101,103,105,107,109,111,113,115,117,119,121,123,125,-1,-1,-1,-1,-1,-1,-1,-1,-1,-1,-1,-1,-1,-1,-1,-1,-1,-1,-1,-1,-1,-1,-1,-1,-1,-1,-1,-1,-1,-1,-1,-1,-1,-1,-1,-1,-1,-1,-1,-1,-1,-1,-1,-1,-1,-1,-1,-1,-1,-1,-1,-1,-1,-1,-1,-1,-1,-1,-1,-1,-1,-1,-1,-1],"loss_changes":[1.6051443E1,2.2650768E1,2.0297787E1,2.1444359E1,1.6552586E1,1.35647E1,2.0641247E1,9.115751E0,1.1139874E1,1.5669342E1,1.4903757E1,1.2579958E1,1.2137403E1,1.28251E1,1.764777E1,6.578865E0,6.167103E0,1.0723644E1,1.1174586E1,1.2341863E1,1.2125782E1,9.708495E0,8.905203E0,1.0106043E1,1.234921E1,9.955767E0,1.1018829E1,1.1397797E1,7.070155E0,1.6751402E1,1.5699215E1,1.8878222E-1,4.1892815E0,3.4150085E0,1.0664366E0,6.866166E0,5.157011E0,9.895896E0,7.9875727E0,1.0261196E1,1.0451329E1,1.2386311E1,1.7087992E1,6.8630714E0,9.378309E0,6.5512733E0,9.255234E0,1.1153418E1,7.644032E0,1.0729006E1,9.128788E0,4.6260557E0,9.8141775E0,9.838812E0,1.2184259E1,1.1026394E1,3.4479065E0,5.8311696E0,2.6097584E-1,2.401178E1,1.6521717E1,1.1375733E1,8.003703E0,0E0,0E0,0E0,0E0,0E0,0E0,0E0,0E0,0E0,0E0,0E0,0E0,0E0,0E0,0E0,0E0,0E0,0E0,0E0,0E0,0E0,0E0,0E0,0E0,0E0,0E0,0E0,0E0,0E0,0E0,0E0,0E0,0E0,0E0,0E0,0E0,0E0,0E0,0E0,0E0,0E0,0E0,0E0,0E0,0E0,0E0,0E0,0E0,0E0,0E0,0E0,0E0,0E0,0E0,0E0,0E0,0E0,0E0,0E0,0E0,0E0,0E0,0E0,0E0],"parents":[2147483647,0,0,1,1,2,2,3,3,4,4,5,5,6,6,7,7,8,8,9,9,10,10,11,11,12,12,13,13,14,14,15,15,16,16,17,17,18,18,19,19,20,20,21,21,22,22,23,23,24,24,25,25,26,26,27,27,28,28,29,29,30,30,31,31,32,32,33,33,34,34,35,35,36,36,37,37,38,38,39,39,40,40,41,41,42,42,43,43,44,44,45,45,46,46,47,47,48,48,49,49,50,50,51,51,52,52,53,53,54,54,55,55,56,56,57,57,58,58,59,59,60,60,61,61,62,62],"right_children":[2,4,6,8,10,12,14,16,18,20,22,24,26,28,30,32,34,36,38,40,42,44,46,48,50,52,54,56,58,60,62,64,66,68,70,72,74,76,78,80,82,84,86,88,90,92,94,96,98,100,102,104,106,108,110,112,114,116,118,120,122,124,126,-1,-1,-1,-1,-1,-1,-1,-1,-1,-1,-1,-1,-1,-1,-1,-1,-1,-1,-1,-1,-1,-1,-1,-1,-1,-1,-1,-1,-1,-1,-1,-1,-1,-1,-1,-1,-1,-1,-1,-1,-1,-1,-1,-1,-1,-1,-1,-1,-1,-1,-1,-1,-1,-1,-1,-1,-1,-1,-1,-1,-1,-1,-1,-1],"split_conditions":[5.685128E-1,4.717501E-2,-1.20354965E-1,3.930214E-1,3.3154944E-1,5.4179046E-2,4.2389914E-1,3.670194E-1,4.1853696E-1,2.4109596E-2,4.3491762E-2,1.0067823E-1,2.0052932E-1,5.669362E-1,7.551338E-1,2.9883033E-1,3.0933862E0,4.685037E-1,1.0578164E0,3.3020175E-1,5.329049E-1,1.16984315E-1,3.119168E-1,9.3505514E-1,1.5366901E-2,2.802804E-1,4.8E1,1.6833926E-2,5.7271826E-1,1.917434E0,1.2701551E0,2.6035306E-1,1.0313708E0,1.6357737E0,1.0511682E-1,6.4321715E-1,1.2310419E0,4.3235552E-1,7.1966565E-1,5.5670425E-2,1.3406883E-2,-1.94812E-2,7.04673E-1,4.191339E-2,1.5088844E-1,7.561069E-1,2.495698E-1,1.1374331E-1,8.817248E-2,4.6019834E-1,7.966502E-1,6.7537063E-1,7.647973E-2,2.0450594E0,1.2495587E0,1.7517873E0,2.2566655E0,8.4836376E-1,4.3349788E-1,4.0656504E-1,1.1532297E0,-2.2115529E0,7.232429E-2,5.2085865E-1,3.751893E-1,-1.1743808E-1,1.4969021E-1,3.294084E-1,-2.2952096E-1,1.24752216E-1,-2.2218607E-1,3.089774E-1,-8.346071E-2,3.1067884E-1,-9.7578265E-2,5.913083E-2,-6.107348E-2,2.0378694E-1,-2.1363023E-1,-1.011515E-1,2.7776033E-1,3.183167E-1,-6.1703697E-2,2.0081282E-1,-8.510501E-2,1.292614E-2,-6.8023145E-2,3.3128104E-1,-1.1243951E-1,3.1392533E-1,-3.0047877E-2,2.4015342E-1,-5.6241333E-2,2.9210025E-1,-8.4315196E-2,2.0930138E-1,-8.646433E-2,-4.717104E-2,1.3046128E-1,-2.4211053E-2,1.2125104E-1,1.3017505E-1,-5.1395874E-2,1.665281E-1,-2.171077E-1,-2.4099646E-2,3.283944E-1,-9.274263E-2,-1.9636897E-2,3.0749583E-1,-3.7910892E-3,2.792899E-1,-1.0756563E-1,2.725386E-1,-1.2879805E-1,-2.439235E-1,2.6574874E-1,-5.8699176E-2,-2.1846746E-1,-4.703569E-3,1.4309798E-1,1.3661191E-1,8.985358E-3,-1.8312706E-1,4.278639E-2,3.8748655E-1,-8.363592E-2],"split_indices":[24,263,524,202,274,289,534,463,6,337,296,399,341,316,52,163,450,172,202,421,155,366,113,430,218,231,538,225,3,300,357,185,378,499,37,271,16,290,290,139,493,532,110,337,108,451,62,296,213,428,302,348,337,54,169,344,513,259,75,73,309,520,9,0,0,0,0,0,0,0,0,0,0,0,0,0,0,0,0,0,0,0,0,0,0,0,0,0,0,0,0,0,0,0,0,0,0,0,0,0,0,0,0,0,0,0,0,0,0,0,0,0,0,0,0,0,0,0,0,0,0,0,0,0,0,0,0],"split_type":[0,0,0,0,0,0,0,0,0,0,0,0,0,0,0,0,0,0,0,0,0,0,0,0,0,0,0,0,0,0,0,0,0,0,0,0,0,0,0,0,0,0,0,0,0,0,0,0,0,0,0,0,0,0,0,0,0,0,0,0,0,0,0,0,0,0,0,0,0,0,0,0,0,0,0,0,0,0,0,0,0,0,0,0,0,0,0,0,0,0,0,0,0,0,0,0,0,0,0,0,0,0,0,0,0,0,0,0,0,0,0,0,0,0,0,0,0,0,0,0,0,0,0,0,0,0,0],"sum_hessian":[5.648999E3,2.3686655E3,3.2803337E3,4.5400098E2,1.9146644E3,1.4925281E3,1.7878057E3,6.857641E1,3.8542456E2,1.722479E3,1.9218544E2,7.189738E2,7.7355426E2,1.2415921E2,1.6636465E3,2.567231E1,4.2904102E1,5.341841E1,3.3200616E2,9.909202E1,1.623387E3,9.871819E1,9.346724E1,1.7847769E2,5.404961E2,4.4802105E1,7.2875214E2,1.0154494E2,2.2614267E1,1.1279268E3,5.357197E2,3.8105485E0,2.1861761E1,3.9403564E1,3.5005367E0,2.4692225E1,2.8726185E1,2.9524228E2,3.6763893E1,4.0227474E1,5.8864544E1,6.842621E2,9.391249E2,6.9442764E1,2.9275427E1,6.167489E1,3.1792355E1,8.513501E1,9.3342674E1,1.8562875E2,3.5486734E2,1.3521704E1,3.1280401E1,6.6860974E2,6.014239E1,2.8292534E1,7.32524E1,1.0398725E1,1.2215542E1,7.085733E2,4.1935345E2,3.0481903E2,2.3090068E2,1.1443627E0,2.6661859E0,1.29238825E1,8.937878E0,3.839386E1,1.0097044E0,1.228606E0,2.2719307E0,5.0420685E0,1.9650156E1,2.560167E1,3.1245143E0,8.767552E1,2.0756676E2,3.2027916E1,4.7359767E0,8.038622E0,3.2188854E1,7.4582653E0,5.1406277E1,1.3919631E1,6.7034247E2,4.784542E2,4.6067072E2,3.2933908E0,6.6149376E1,1.2309824E1,1.6965605E1,5.401091E1,7.663979E0,7.785394E0,2.400696E1,7.1464966E1,1.3670045E1,5.8631313E1,3.4711365E1,8.0845406E1,1.04783356E2,2.6970695E1,3.2789664E2,4.0299563E0,9.491748E0,1.0923047E1,2.0357353E1,3.656319E2,3.0297784E2,1.5115824E1,4.5026566E1,1.0609414E1,1.7683119E1,7.127233E1,1.9800773E0,2.7448144E0,7.65391E0,1.0024157E0,1.1213126E1,5.8970746E2,1.1886585E2,2.850571E2,1.3429637E2,2.158943E1,2.832296E2,3.2923265E0,2.2760835E2],"tree_param":{"num_deleted":"0","num_feature":"539","num_nodes":"127","size_leaf_vector":"1"}},{"base_weights":[-3.9530117E-3,1.8826514E-1,-4.0654376E-2,2.4918999E-1,-3.3813918E-1,-2.7125505E-1,-1.3173248E-2,2.989457E-1,-4.7932276E-1,-5.2458906E-1,6.623211E-1,-3.069333E-1,7.6145595E-1,-7.876696E-2,9.3056E-2,-8.219381E-2,3.760823E-1,1.2107308E0,-6.3072824E-1,9.202269E-1,-6.6588026E-1,1.0395042E0,-6.922026E-1,-4.237068E-1,-1.2811304E-2,1.1037204E0,-7.1713793E-1,3.875771E-2,-1.6304097E-1,-2.8510377E-1,1.2982367E-1,-3.3219442E-1,5.44272E-1,-4.1147575E-1,4.207807E-1,2.4413745E-1,5.280737E-1,3.1288156E-1,-7.116305E-1,1.6790688E-1,1.1474683E0,3.8095346E-1,-7.2393686E-1,1.2264643E0,1.570977E-1,-2.136193E-1,-1.954968E-1,6.5203184E-1,-4.8213887E-1,2.4706943E-1,-5.954405E-1,-2.1463765E-1,1.266299E0,-1.9883981E-1,-2.387885E-1,-8.943505E-2,2.2485128E-1,6.106275E-1,-1.81335E-1,5.164737E-1,-4.4037366E-1,4.5760143E-1,8.055475E-2,1.7105156E-1,-1.6387102E-1,2.233579E-1,-2.3820253E-1,2.123781E-1,-2.2453529E-1,2.1674514E-1,9.337775E-2,-2.0714192E-1,-2.2130749E-1,3.446239E-1,3.4385732E-1,-2.8414643E-1,-2.1616831E-1,3.9428928E-1,3.4267712E-1,3.096831E-1,-1.9963372E-1,-7.3399074E-2,-1.9868022E-1,-2.5117886E-3,2.7006716E-1,-2.0747443E-1,3.7930664E-1,3.482047E-1,4.135114E-1,-1.2276393E-1,6.800633E-3,-1.0884017E-1,8.9006335E-2,-1.1283935E-1,3.434332E-1,-6.0395855E-2,1.3213706E-1,3.0379814E-1,-2.2479992E-1,3.2053113E-2,-1.8714894E-1,-1.2316663E-2,2.0124494E-1,2.0149998E-1,1.4662377E-2],"categories":[],"categories_nodes":[],"categories_segments":[],"categories_sizes":[],"default_left":[0,0,0,0,0,0,0,0,0,0,0,0,0,0,0,0,0,0,0,0,0,0,0,0,0,0,0,0,0,0,0,0,0,0,0,0,0,0,0,0,0,0,0,0,0,0,0,0,0,0,0,0,0,0,0,0,0,0,0,0,0,0,0,0,0,0,0,0,0,0,0,0,0,0,0,0,0,0,0,0,0,0,0,0,0,0,0,0,0,0,0,0,0,0,0,0,0,0,0,0,0,0,0,0,0],"id":10,"left_children":[1,3,5,7,9,11,13,15,17,19,21,23,25,27,29,31,33,35,37,39,41,43,45,47,49,51,53,55,57,59,61,63,65,67,69,-1,-1,-1,71,-1,73,-1,75,77,-1,-1,-1,79,81,83,85,-1,87,-1,-1,89,91,93,95,97,99,101,103,-1,-1,-1,-1,-1,-1,-1,-1,-1,-1,-1,-1,-1,-1,-1,-1,-1,-1,-1,-1,-1,-1,-1,-1,-1,-1,-1,-1,-1,-1,-1,-1,-1,-1,-1,-1,-1,-1,-1,-1,-1,-1],"loss_changes":[3.94243E1,2.8734297E1,2.9736792E1,2.910748E1,1.7336502E1,1.8410198E1,2.9215172E1,2.209922E1,1.3136515E1,1.5992235E1,7.4590344E0,1.6588127E1,8.444246E0,2.5673662E1,2.2254845E1,1.981546E1,2.2007133E1,9.207063E-1,6.3797874E0,5.7174444E-1,8.019672E0,1.101346E0,2.5609732E-3,2.1730995E1,2.0782827E1,4.007389E0,1.3433933E-2,2.5824703E1,2.1366833E1,1.7652649E1,2.3558018E1,1.7466675E1,9.671646E0,1.2665081E1,1.9547615E1,0E0,0E0,0E0,2.4784088E-2,0E0,6.67572E-6,0E0,5.2204132E-2,6.1994553E-2,0E0,0E0,0E0,8.922803E0,1.4026543E1,1.5836668E1,7.570256E0,0E0,1.4722443E-1,0E0,0E0,2.2978167E1,1.86399E1,1.8380394E1,1.8325874E1,1.4455536E1,1.192812E1,2.0266739E1,2.374804E1,0E0,0E0,0E0,0E0,0E0,0E0,0E0,0E0,0E0,0E0,0E0,0E0,0E0,0E0,0E0,0E0,0E0,0E0,0E0,0E0,0E0,0E0,0E0,0E0,0E0,0E0,0E0,0E0,0E0,0E0,0E0,0E0,0E0,0E0,0E0,0E0,0E0,0E0,0E0,0E0,0E0,0E0],"parents":[2147483647,0,0,1,1,2,2,3,3,4,4,5,5,6,6,7,7,8,8,9,9,10,10,11,11,12,12,13,13,14,14,15,15,16,16,17,17,18,18,19,19,20,20,21,21,22,22,23,23,24,24,25,25,26,26,27,27,28,28,29,29,30,30,31,31,32,32,33,33,34,34,38,38,40,40,42,42,43,43,47,47,48,48,49,49,50,50,52,52,55,55,56,56,57,57,58,58,59,59,60,60,61,61,62,62],"right_children":[2,4,6,8,10,12,14,16,18,20,22,24,26,28,30,32,34,36,38,40,42,44,46,48,50,52,54,56,58,60,62,64,66,68,70,-1,-1,-1,72,-1,74,-1,76,78,-1,-1,-1,80,82,84,86,-1,88,-1,-1,90,92,94,96,98,100,102,104,-1,-1,-1,-1,-1,-1,-1,-1,-1,-1,-1,-1,-1,-1,-1,-1,-1,-1,-1,-1,-1,-1,-1,-1,-1,-1,-1,-1,-1,-1,-1,-1,-1,-1,-1,-1,-1,-1,-1,-1,-1,-1],"split_conditions":[1.5824152E0,3.9362732E-1,-8.4802914E-1,2.7546516E-1,4.6621424E-1,1.0184386E0,6.523803E-1,2.413269E-1,9.230049E-2,7.1427445E-3,7.304424E-1,1.8532375E-1,9.731481E-2,7.859241E-2,4.3703895E-2,2.505149E-1,2.1727001E-2,1.17691405E-1,2.537838E-1,8.6217386E-1,7.109112E-2,4.135879E-1,1.5649905E0,9.429334E-4,4.2974186E-1,2.9120368E-1,5.991265E-1,3.2238615E-1,-2.926906E0,1.0025897E0,1.3251957E-2,1.06989585E-1,9.496107E-1,2.715977E-1,7.564233E-2,2.4413745E-1,5.280737E-1,3.1288156E-1,4.7239918E-1,1.6790688E-1,2.596717E-1,3.8095346E-1,-2.54885E0,1.6047426E-1,1.570977E-1,-2.136193E-1,-1.954968E-1,7.176789E-1,2.2111044E0,1.7071158E0,3.2087202E0,-2.1463765E-1,9.4270283E-1,-1.9883981E-1,-2.387885E-1,3.002807E-1,5.3904716E-2,8.8574386E-1,1.300726E0,6.0579634E-1,3.8245738E-1,1.04775585E-1,7E0,1.7105156E-1,-1.6387102E-1,2.233579E-1,-2.3820253E-1,2.123781E-1,-2.2453529E-1,2.1674514E-1,9.337775E-2,-2.0714192E-1,-2.2130749E-1,3.446239E-1,3.4385732E-1,-2.8414643E-1,-2.1616831E-1,3.9428928E-1,3.4267712E-1,3.096831E-1,-1.9963372E-1,-7.3399074E-2,-1.9868022E-1,-2.5117886E-3,2.7006716E-1,-2.0747443E-1,3.7930664E-1,3.482047E-1,4.135114E-1,-1.2276393E-1,6.800633E-3,-1.0884017E-1,8.9006335E-2,-1.1283935E-1,3.434332E-1,-6.0395855E-2,1.3213706E-1,3.0379814E-1,-2.2479992E-1,3.2053113E-2,-1.8714894E-1,-1.2316663E-2,2.0124494E-1,2.0149998E-1,1.4662377E-2],"split_indices":[38,206,529,274,410,200,370,74,290,412,249,531,429,188,0,107,531,1,257,3,498,32,145,95,463,214,253,410,518,484,225,332,486,82,108,0,0,0,467,0,0,0,519,2,0,0,0,69,450,169,374,0,7,0,0,231,285,325,269,456,377,330,537,0,0,0,0,0,0,0,0,0,0,0,0,0,0,0,0,0,0,0,0,0,0,0,0,0,0,0,0,0,0,0,0,0,0,0,0,0,0,0,0,0,0],"split_type":[0,0,0,0,0,0,0,0,0,0,0,0,0,0,0,0,0,0,0,0,0,0,0,0,0,0,0,0,0,0,0,0,0,0,0,0,0,0,0,0,0,0,0,0,0,0,0,0,0,0,0,0,0,0,0,0,0,0,0,0,0,0,0,0,0,0,0,0,0,0,0,0,0,0,0,0,0,0,0,0,0,0,0,0,0,0,0,0,0,0,0,0,0,0,0,0,0,0,0,0,0,0,0,0,0],"sum_hessian":[5.5883984E3,8.959561E2,4.6924424E3,8.030168E2,9.293933E1,4.9966174E2,4.192781E3,7.516789E2,5.13379E1,7.833964E1,1.4599697E1,4.8297583E2,1.6685919E1,2.5921794E3,1.6006012E3,1.26521904E2,6.25157E2,4.221022E0,4.711688E1,6.9785314E0,7.13611E1,1.1419737E1,3.17996E0,3.4571762E2,1.372582E2,1.3549487E1,3.1364315E0,1.0825312E3,1.5096483E3,1.4183295E2,1.4587682E3,9.043318E1,3.6088722E1,3.3575592E1,5.9158136E2,2.4507413E0,1.770281E0,2.1725352E0,4.4944344E1,2.6979737E0,4.2805576E0,2.077952E0,6.928315E1,8.381862E0,3.0378752E0,2.134419E0,1.045541E0,1.781125E1,3.2790637E2,9.491952E1,4.2338684E1,1.1115664E0,1.2437922E1,1.8565699E0,1.2798617E0,6.409827E2,4.4154852E2,3.4872314E1,1.474776E3,2.301557E1,1.1881737E2,1.9061813E2,1.2681501E3,1.733821E1,7.309497E1,3.1391445E1,4.697275E0,7.768686E0,2.5806908E1,1.5755598E2,4.340254E2,2.4805838E1,2.0138504E1,2.1397362E0,2.1408217E0,1.0321828E0,6.825097E1,4.102597E0,4.2792645E0,1.38220005E1,3.9892514E0,1.4143857E2,1.8646782E2,6.8233925E1,2.6685595E1,4.02576E1,2.0810885E0,6.403386E0,6.0345354E0,1.6638025E2,4.7460245E2,4.809683E1,3.934517E2,1.2247313E1,2.2625E1,1.4288524E3,4.5923595E1,1.6534264E1,6.4813056E0,2.9832441E1,8.898493E1,5.709263E1,1.335255E2,6.450823E1,1.2036418E3],"tree_param":{"num_deleted":"0","num_feature":"539","num_nodes":"105","size_leaf_vector":"1"}},{"base_weights":[1.9852058E-3,-1.9426511E-1,2.0619133E-2,5.3372675E-1,-2.2875421E-1,1.1643613E-1,-1.2094503E-2,-6.9470257E-1,7.77014E-1,8.6875796E-1,-2.4592777E-1,9.985803E-2,8.348739E-1,-1.0691804E-1,3.544283E-2,-1.9654734E-1,-2.1454532E-1,9.842241E-1,-2.035857E-1,1.1559108E0,-2.0999616E-1,2.1128379E-1,-2.8336698E-1,6.027417E-2,3.7691808E-1,1.0188426E0,-5.083047E-1,-3.0752122E-1,-4.6859827E-2,-6.160432E-3,2.0469594E-1,1.127226E0,-2.2702286E-1,1.1124009E-1,1.361566E0,7.7099115E-1,-3.8327038E-1,-3.9947706E-1,-1.3656093E-1,3.7243515E-1,2.4281375E-2,7.090072E-1,2.140578E-2,1.1850302E0,3.9436117E-1,-2.0611092E-1,-4.8048973E-2,-3.4425884E-1,8.81795E-1,-2.14827E-1,4.393103E-2,-1.7928304E-2,6.6698796E-1,3.2860857E-2,4.270049E-1,3.854625E-1,-9.1644555E-2,3.8234374E-1,4.8094591E-1,-1.1345997E-2,3.6982003E-1,2.9421306E-1,-2.0114362E-1,-1.2922904E-1,1.1903971E-1,-1.0198637E-1,2.7021555E-2,1.6664033E-1,-7.0546575E-2,-2.683464E-5,1.7771599E-1,-6.675714E-2,2.4061196E-1,1.8300942E-1,-7.249574E-2,1.13803186E-1,3.6839837E-1,-2.3399669E-1,3.0772355E-1,3.196296E-1,-1.0980488E-1,3.7143925E-1,-4.183071E-2,2.1819128E-1,-7.656568E-2,1.2100973E-1,-5.7768384E-3,1.12018235E-1,-1.13468245E-2,-1.2818094E-1,2.6668522E-1,-3.131233E-2,1.0311062E-1,7.5626686E-2,2.1501568E-1],"categories":[],"categories_nodes":[],"categories_segments":[],"categories_sizes":[],"default_left":[0,0,0,0,0,0,0,0,0,0,0,0,0,0,0,0,0,0,0,0,0,0,0,0,0,0,0,0,0,0,0,0,0,0,0,0,0,0,0,0,0,0,0,0,0,0,0,0,0,0,0,0,0,0,0,0,0,0,0,0,0,0,0,0,0,0,0,0,0,0,0,0,0,0,0,0,0,0,0,0,0,0,0,0,0,0,0,0,0,0,0,0,0,0,0],"id":11,"left_children":[1,3,5,7,9,11,13,15,17,19,21,23,25,27,29,-1,-1,31,-1,33,-1,35,37,39,41,43,45,47,49,51,53,55,-1,-1,57,59,61,63,65,67,69,71,73,75,77,-1,-1,79,81,83,85,87,89,91,93,-1,-1,-1,-1,-1,-1,-1,-1,-1,-1,-1,-1,-1,-1,-1,-1,-1,-1,-1,-1,-1,-1,-1,-1,-1,-1,-1,-1,-1,-1,-1,-1,-1,-1,-1,-1,-1,-1,-1,-1],"loss_changes":[2.0664152E1,1.2302996E1,1.6176327E1,6.624072E0,8.817995E0,1.5644251E1,1.7341846E1,2.9628277E-3,5.5801287E0,3.246935E0,7.884983E0,1.4080408E1,7.320595E0,1.5477432E1,1.804405E1,0E0,0E0,4.031945E0,0E0,9.8373127E-1,0E0,1.1602123E1,7.257538E0,1.2621767E1,1.89487E1,2.7042065E0,2.220695E-1,1.2932795E1,1.5077046E1,1.6294035E1,1.9314318E1,3.3802376E0,0E0,0E0,1.01576805E-1,6.706856E0,6.622883E0,5.922722E0,8.667388E0,1.2915459E1,1.3945449E1,7.191517E0,1.2002704E1,7.123947E-1,4.0608497E0,0E0,0E0,8.806511E0,3.2275195E0,1.3200909E1,1.4575691E1,1.5738371E1,8.583809E0,1.2165134E1,1.11703415E1,0E0,0E0,0E0,0E0,0E0,0E0,0E0,0E0,0E0,0E0,0E0,0E0,0E0,0E0,0E0,0E0,0E0,0E0,0E0,0E0,0E0,0E0,0E0,0E0,0E0,0E0,0E0,0E0,0E0,0E0,0E0,0E0,0E0,0E0,0E0,0E0,0E0,0E0,0E0,0E0],"parents":[2147483647,0,0,1,1,2,2,3,3,4,4,5,5,6,6,7,7,8,8,9,9,10,10,11,11,12,12,13,13,14,14,17,17,19,19,21,21,22,22,23,23,24,24,25,25,26,26,27,27,28,28,29,29,30,30,31,31,34,34,35,35,36,36,37,37,38,38,39,39,40,40,41,41,42,42,43,43,44,44,47,47,48,48,49,49,50,50,51,51,52,52,53,53,54,54],"right_children":[2,4,6,8,10,12,14,16,18,20,22,24,26,28,30,-1,-1,32,-1,34,-1,36,38,40,42,44,46,48,50,52,54,56,-1,-1,58,60,62,64,66,68,70,72,74,76,78,-1,-1,80,82,84,86,88,90,92,94,-1,-1,-1,-1,-1,-1,-1,-1,-1,-1,-1,-1,-1,-1,-1,-1,-1,-1,-1,-1,-1,-1,-1,-1,-1,-1,-1,-1,-1,-1,-1,-1,-1,-1,-1,-1,-1,-1,-1,-1],"split_conditions":[2.780467E-1,2.4549069E-1,-6.297888E-1,6.273099E-1,1.7596908E-1,5.251069E-1,-9.947835E-1,1.15686305E-1,1.6365509E0,6.9637483E-1,5.356591E-2,1.0043159E0,6.26963E-1,7.5023204E-1,7.488252E-1,-1.9654734E-1,-2.1454532E-1,2.8740115E0,-2.035857E-1,5.0288984E-3,-2.0999616E-1,1.5525709E-1,2.4423275E-2,2.2376995E-1,4.8367748E-1,1.4014883E0,7.1164054E-1,6.55305E-1,1.5614204E-1,1.7961011E0,1.2781526E-1,1.3149289E0,-2.2702286E-1,1.1124009E-1,8.472871E-1,1.8208219E0,6.016463E-1,3.4330118E0,1.1360625E-2,1.6275975E-1,3.917574E-1,3.650135E-2,4.732857E-1,3.618252E-1,1.09087914E-1,-2.0611092E-1,-4.8048973E-2,2.341156E-1,8.7406975E-1,-1.9272968E0,4.5992073E-2,1.7904402E-1,8.790018E-2,7.334734E-3,1.4550968E-1,3.854625E-1,-9.1644555E-2,3.8234374E-1,4.8094591E-1,-1.1345997E-2,3.6982003E-1,2.9421306E-1,-2.0114362E-1,-1.2922904E-1,1.1903971E-1,-1.0198637E-1,2.7021555E-2,1.6664033E-1,-7.0546575E-2,-2.683464E-5,1.7771599E-1,-6.675714E-2,2.4061196E-1,1.8300942E-1,-7.249574E-2,1.13803186E-1,3.6839837E-1,-2.3399669E-1,3.0772355E-1,3.196296E-1,-1.0980488E-1,3.7143925E-1,-4.183071E-2,2.1819128E-1,-7.656568E-2,1.2100973E-1,-5.7768384E-3,1.12018235E-1,-1.13468245E-2,-1.2818094E-1,2.6668522E-1,-3.131233E-2,1.0311062E-1,7.5626686E-2,2.1501568E-1],"split_indices":[56,43,529,430,505,533,528,0,514,22,327,439,63,442,452,0,0,397,0,34,0,253,504,505,200,53,11,428,322,357,188,170,0,0,480,81,442,336,461,64,314,380,92,136,2,0,0,334,401,514,417,176,151,311,265,0,0,0,0,0,0,0,0,0,0,0,0,0,0,0,0,0,0,0,0,0,0,0,0,0,0,0,0,0,0,0,0,0,0,0,0,0,0,0,0],"split_type":[0,0,0,0,0,0,0,0,0,0,0,0,0,0,0,0,0,0,0,0,0,0,0,0,0,0,0,0,0,0,0,0,0,0,0,0,0,0,0,0,0,0,0,0,0,0,0,0,0,0,0,0,0,0,0,0,0,0,0,0,0,0,0,0,0,0,0,0,0,0,0,0,0,0,0,0,0,0,0,0,0,0,0,0,0,0,0,0,0,0,0,0,0,0,0],"sum_hessian":[5.6507065E3,4.9000735E2,5.160699E3,2.2164375E1,4.67843E2,1.3135021E3,3.8471973E3,3.6639595E0,1.8500416E1,7.207887E0,4.606351E2,1.2838763E3,2.9625713E1,1.2846614E3,2.5625361E3,1.2488495E0,2.4151099E0,1.6195044E1,2.3053722E0,6.092651E0,1.1152365E0,3.486463E1,4.2577048E2,1.1233782E3,1.604982E2,2.6056835E1,3.5688777E0,2.9599493E2,9.886664E2,2.056932E3,5.0560413E2,1.4965764E1,1.2292788E0,1.2646633E0,4.827987E0,1.7958593E1,1.690604E1,2.3774E2,1.8803046E2,1.16136955E2,1.00724115E3,8.2982796E1,7.75154E1,2.058005E1,5.476785E0,2.358204E0,1.2106737E0,2.8712573E2,8.869224E0,3.4689502E2,6.4177136E2,2.0215908E3,3.5341125E1,2.8517575E2,2.2042838E2,1.3482239E1,1.4835259E0,3.5487418E0,1.2792455E0,6.5264797E0,1.1432113E1,2.940642E0,1.3965397E1,2.2875214E2,8.987876E0,9.909593E1,8.893453E1,8.925075E1,2.6886202E1,9.6580945E2,4.143171E1,7.5350184E0,7.544778E1,2.394206E1,5.357334E1,1.0418991E0,1.953815E1,1.9149854E0,3.5617998E0,4.364196E0,2.8276154E2,6.5750175E0,2.2942061E0,1.4260989E1,3.3263403E2,9.59527E1,5.4581866E2,9.7803444E1,1.9237874E3,5.9598017E0,2.9381325E1,1.9783311E2,8.734263E1,1.3744527E2,8.298311E1],"tree_param":{"num_deleted":"0","num_feature":"539","num_nodes":"95","size_leaf_vector":"1"}},{"base_weights":[2.0808459E-3,2.12284E-2,-1.2002377E-1,1.865559E-2,1.0370387E0,6.5027857E-1,-1.3406838E-1,-2.7579566E-2,6.815221E-2,-8.0203675E-2,1.1553974E0,-6.356275E-1,1.1107987E0,-1.4476867E-1,9.0625E-1,7.9447724E-2,-8.3280526E-2,-2.2399548E-2,1.5452667E-1,1.2532674E0,1.2638608E-1,-1.8370457E-1,-1.958898E-1,-8.6224854E-2,1.2970313E0,-6.119984E-2,-2.7301514E-1,1.1050012E0,-5.3826578E-2,6.8568796E-2,1.4937433E0,-1.8108279E-1,-7.95027E-3,-3.108791E-1,1.5722608E-2,3.7384138E-2,2.5239876E-1,1.0770712E0,1.3989599E0,1.8259951E0,1.055098E0,3.3852285E-1,-1.074346E-1,-3.2113096E-1,3.0760756E-1,8.42669E-1,4.9833444E-1,1.4299065E-1,9.787928E-3,5.2292794E-1,4.2135638E-1,-6.2064353E-2,1.9538815E-1,1.2843008E-2,-1.04554124E-1,2.1285373E-1,-1.1408665E-1,-5.0364706E-5,2.1415801E-1,-1.12344865E-2,8.958951E-2,1.03689305E-1,-2.314033E-3,3.657173E-1,2.9722133E-1,3.7907076E-1,4.8425773E-1,4.6926728E-1,6.434295E-1,2.6838586E-1,3.7805787E-1,-9.8039E-2,1.8246125E-1,4.1317576E-1,-3.6535434E-2,1.6100657E-1,-1.0395748E-1,-1.9464691E-1,2.4012826E-1,2.3772933E-1,2.617419E-1],"categories":[],"categories_nodes":[],"categories_segments":[],"categories_sizes":[],"default_left":[0,0,0,0,0,0,0,0,0,0,0,0,0,0,0,0,0,0,0,0,0,0,0,0,0,0,0,0,0,0,0,0,0,0,0,0,0,0,0,0,0,0,0,0,0,0,0,0,0,0,0,0,0,0,0,0,0,0,0,0,0,0,0,0,0,0,0,0,0,0,0,0,0,0,0,0,0,0,0,0,0],"id":12,"left_children":[1,3,5,7,9,11,13,15,17,-1,19,21,23,25,27,29,31,33,35,37,-1,-1,-1,-1,39,41,43,45,-1,47,49,51,53,55,57,59,61,63,65,67,69,71,73,75,77,79,-1,-1,-1,-1,-1,-1,-1,-1,-1,-1,-1,-1,-1,-1,-1,-1,-1,-1,-1,-1,-1,-1,-1,-1,-1,-1,-1,-1,-1,-1,-1,-1,-1,-1,-1],"loss_changes":[1.3071305E1,1.2630791E1,8.199034E0,1.1032142E1,1.8850079E0,8.036207E0,8.28526E0,1.4858966E1,1.8210022E1,0E0,8.0426025E-1,1.4443398E-3,2.6018486E0,7.895693E0,1.635076E0,1.3126755E1,1.2077619E1,1.2500111E1,1.3661747E1,2.5355148E-1,0E0,0E0,0E0,0E0,1.128418E0,8.243585E0,8.120251E0,9.344053E-1,0E0,1.2417698E1,1.4488792E-1,1.53167305E1,1.6008675E1,9.396524E0,1.1137715E1,1.0603904E1,1.5743687E1,5.4801464E-2,1.5755177E-1,2.3091221E-1,1.9913578E-1,8.297455E0,8.5181675E0,5.847069E0,1.0484486E1,6.516218E-3,0E0,0E0,0E0,0E0,0E0,0E0,0E0,0E0,0E0,0E0,0E0,0E0,0E0,0E0,0E0,0E0,0E0,0E0,0E0,0E0,0E0,0E0,0E0,0E0,0E0,0E0,0E0,0E0,0E0,0E0,0E0,0E0,0E0,0E0,0E0],"parents":[2147483647,0,0,1,1,2,2,3,3,4,4,5,5,6,6,7,7,8,8,10,10,11,11,12,12,13,13,14,14,15,15,16,16,17,17,18,18,19,19,24,24,25,25,26,26,27,27,29,29,30,30,31,31,32,32,33,33,34,34,35,35,36,36,37,37,38,38,39,39,40,40,41,41,42,42,43,43,44,44,45,45],"right_children":[2,4,6,8,10,12,14,16,18,-1,20,22,24,26,28,30,32,34,36,38,-1,-1,-1,-1,40,42,44,46,-1,48,50,52,54,56,58,60,62,64,66,68,70,72,74,76,78,80,-1,-1,-1,-1,-1,-1,-1,-1,-1,-1,-1,-1,-1,-1,-1,-1,-1,-1,-1,-1,-1,-1,-1,-1,-1,-1,-1,-1,-1,-1,-1,-1,-1,-1,-1],"split_conditions":[4.9401283E-2,3.320352E-1,3.3889703E-2,8.4236085E-2,4.1156327E-3,6.224865E-1,2.4039014E-1,-1.6632372E0,1.875454E0,-8.0203675E-2,4.4035354E-1,4.9558488E-1,2.7183142E-1,4.6232292E-1,1.196404E0,1.9939581E0,1.3740208E0,9E0,3.0710287E-2,6.016463E-1,1.2638608E-1,-1.8370457E-1,-1.958898E-1,-8.6224854E-2,1.3932787E-1,6.5763754E-1,5.3846025E-1,3.1619838E-1,-5.3826578E-2,4.4339153E-1,3.8033018E-1,4.0667248E-1,1.2949024E0,7.966502E-1,1.6886461E0,4.1827282E-1,6.60523E-1,2.4005006E-1,2.0633882E-1,4.5126575E-1,2.575805E0,5.243765E-1,6.808497E-1,1.3910508E-1,1.2960614E-1,3.844618E-2,4.9833444E-1,1.4299065E-1,9.787928E-3,5.2292794E-1,4.2135638E-1,-6.2064353E-2,1.9538815E-1,1.2843008E-2,-1.04554124E-1,2.1285373E-1,-1.1408665E-1,-5.0364706E-5,2.1415801E-1,-1.12344865E-2,8.958951E-2,1.03689305E-1,-2.314033E-3,3.657173E-1,2.9722133E-1,3.7907076E-1,4.8425773E-1,4.6926728E-1,6.434295E-1,2.6838586E-1,3.7805787E-1,-9.8039E-2,1.8246125E-1,4.1317576E-1,-3.6535434E-2,1.6100657E-1,-1.0395748E-1,-1.9464691E-1,2.4012826E-1,2.3772933E-1,2.617419E-1],"split_indices":[279,138,139,524,415,490,364,516,465,0,382,7,488,209,128,58,484,537,284,442,0,0,0,0,117,13,66,7,0,347,156,70,343,302,402,62,428,32,133,154,104,74,259,409,292,335,0,0,0,0,0,0,0,0,0,0,0,0,0,0,0,0,0,0,0,0,0,0,0,0,0,0,0,0,0,0,0,0,0,0,0],"split_type":[0,0,0,0,0,0,0,0,0,0,0,0,0,0,0,0,0,0,0,0,0,0,0,0,0,0,0,0,0,0,0,0,0,0,0,0,0,0,0,0,0,0,0,0,0,0,0,0,0,0,0,0,0,0,0,0,0,0,0,0,0,0,0,0,0,0,0,0,0,0,0,0,0,0,0,0,0,0,0,0,0],"sum_hessian":[5.5907954E3,4.8329307E3,7.578648E2,4.8207207E3,1.2209751E1,1.357042E1,7.4429443E2,2.4924783E3,2.3282424E3,1.0157363E0,1.1194015E1,3.578423E0,9.991998E0,7.3671686E2,7.5775614E0,8.5316125E2,1.6393171E3,1.1366359E3,1.1916066E3,9.877208E0,1.316807E0,1.5275316E0,2.0508914E0,1.1744385E0,8.817559E0,4.460553E2,2.9066156E2,6.4050117E0,1.1725497E0,8.4664874E2,6.5125217E0,7.132697E2,9.260474E2,1.3267232E2,1.0039635E3,5.42405E2,6.4920154E2,4.4705973E0,5.4066105E0,2.7672448E0,6.050314E0,4.6244907E1,3.998104E2,2.6841794E2,2.2243616E1,4.3520455E0,2.0529659E0,6.8535904E1,7.7811285E2,1.7162098E0,4.796312E0,6.9182745E2,2.1442245E1,8.059258E2,1.2012162E2,8.449931E0,1.2422239E2,9.816206E2,2.2342926E1,4.2163174E2,1.2077329E2,4.7790546E2,1.7129607E2,1.6904448E0,2.7801523E0,3.3188841E0,2.0877264E0,1.5194699E0,1.2477751E0,3.3943617E0,2.6559522E0,1.3338369E1,3.290654E1,3.8273556E0,3.9598303E2,7.7175E0,2.6070044E2,7.5639772E0,1.4679639E1,1.6205044E0,2.7315414E0],"tree_param":{"num_deleted":"0","num_feature":"539","num_nodes":"81","size_leaf_vector":"1"}},{"base_weights":[-4.948713E-3,1.672124E-1,-3.5465635E-2,4.2042667E-1,6.3298844E-2,-1.9916655E-2,-3.780924E-1,5.9921217E-1,-2.8267676E-2,3.5583788E-1,-5.55237E-2,-1.0474408E-1,4.072053E-2,8.966279E-1,-4.5661348E-1,6.812937E-1,-3.1207955E-1,-7.314752E-1,2.911856E-1,-5.5247647E-1,4.7983065E-1,-1.5931192E-1,4.441905E-1,9.2518695E-2,-1.8755037E-1,-4.518722E-2,1.707099E-1,1.066538E0,1.2691344E-1,-5.9770936E-1,1.5953742E-1,-7.9189444E-1,7.24157E-1,8.966443E-1,-8.3345115E-1,-7.842462E-1,-6.949387E-1,6.1745554E-1,-4.848597E-1,-7.406711E-1,3.0677444E-1,5.6692266E-1,-7.423318E-1,7.059965E-1,-2.3061277E-1,7.2634244E-1,-3.703448E-1,-1.8669264E-2,5.8805865E-1,-2.5111562E-1,3.129125E-1,-9.436807E-2,3.5301587E-1,1.10112116E-1,5.504143E-1,1.0344169E0,1.0988837E0,-6.45253E-1,7.0050937E-1,-2.5200605E-1,1.0251069E0,-2.630965E-1,-2.1525542E-1,-2.3962075E-1,2.2841927E-1,2.7400836E-1,2.6392877E-1,-2.886816E-1,-2.258396E-1,-2.1298918E-1,-2.5169736E-1,-2.1810158E-1,-2.0190607E-1,2.4947853E-1,-2.1411966E-1,2.5652012E-1,-2.1706685E-1,-2.4773766E-1,-2.1332982E-1,2.2284274E-1,3.060492E-2,-2.517212E-1,-2.1170975E-1,3.5765213E-1,-2.131128E-1,8.677806E-2,-9.842924E-2,2.6266104E-1,-2.5119326E-1,2.8166148E-1,-2.3072557E-1,4.45484E-2,-1.2113421E-1,2.2868685E-1,-2.116383E-1,-1.2940769E-1,-4.436378E-2,1.3058643E-1,-1.6177142E-1,4.7564153E-2,-5.0077144E-2,-1.1205038E-1,1.4358804E-1,-1.0791328E-2,7.591773E-2,-9.108218E-2,2.022926E-1,3.1335577E-1,3.0729818E-1,3.2743636E-1,3.3189893E-1,3.949391E-1,-2.0209862E-1,3.3214486E-1,-2.0302804E-1,2.0875554E-1,-2.1054074E-1,3.576121E-1,-1.9772907E-1],"categories":[],"categories_nodes":[],"categories_segments":[],"categories_sizes":[],"default_left":[0,0,0,0,0,0,0,0,0,0,0,0,0,0,0,0,0,0,0,0,0,0,0,0,0,0,0,0,0,0,0,0,0,0,0,0,0,0,0,0,0,0,0,0,0,0,0,0,0,0,0,0,0,0,0,0,0,0,0,0,0,0,0,0,0,0,0,0,0,0,0,0,0,0,0,0,0,0,0,0,0,0,0,0,0,0,0,0,0,0,0,0,0,0,0,0,0,0,0,0,0,0,0,0,0,0,0,0,0,0,0,0,0,0,0,0,0,0,0],"id":13,"left_children":[1,3,5,7,9,11,13,15,17,19,21,23,25,27,29,31,33,35,37,39,41,43,45,47,49,51,53,55,-1,57,59,61,63,65,67,69,71,73,75,77,-1,79,81,83,85,87,89,91,93,95,97,99,101,103,105,107,109,111,113,115,117,-1,-1,-1,-1,-1,-1,-1,-1,-1,-1,-1,-1,-1,-1,-1,-1,-1,-1,-1,-1,-1,-1,-1,-1,-1,-1,-1,-1,-1,-1,-1,-1,-1,-1,-1,-1,-1,-1,-1,-1,-1,-1,-1,-1,-1,-1,-1,-1,-1,-1,-1,-1,-1,-1,-1,-1,-1,-1],"loss_changes":[2.8907705E1,2.1798784E1,2.4899431E1,1.9337631E1,2.0418278E1,2.299676E1,2.0308277E1,1.2893608E1,1.5429213E1,1.9109262E1,2.1665377E1,3.0442585E1,2.9114573E1,9.473238E-1,1.6615479E1,9.98526E0,8.975918E0,4.136753E-2,1.1958288E1,6.0409155E0,1.5890823E1,2.1340515E1,1.6510433E1,3.0360409E1,4.1758488E1,3.0741985E1,2.3870316E1,9.001732E-3,0E0,9.598469E0,1.2685458E1,2.8295755E-2,8.714577E0,1.2114048E-3,1.0338688E-1,3.5694122E-2,8.910656E-3,9.47812E0,4.4709845E0,4.5825005E-2,0E0,1.139571E1,3.5193443E-2,1.8132076E1,1.619516E1,1.2447596E1,9.64867E0,2.8972425E1,2.2757946E1,2.1672844E1,1.542706E1,2.5639065E1,1.5747805E1,1.868211E1,1.5107124E1,4.4298172E-4,2.3841858E-4,8.360531E0,3.0769093E0,1.0290117E1,3.2263603E0,0E0,0E0,0E0,0E0,0E0,0E0,0E0,0E0,0E0,0E0,0E0,0E0,0E0,0E0,0E0,0E0,0E0,0E0,0E0,0E0,0E0,0E0,0E0,0E0,0E0,0E0,0E0,0E0,0E0,0E0,0E0,0E0,0E0,0E0,0E0,0E0,0E0,0E0,0E0,0E0,0E0,0E0,0E0,0E0,0E0,0E0,0E0,0E0,0E0,0E0,0E0,0E0,0E0,0E0,0E0,0E0,0E0,0E0],"parents":[2147483647,0,0,1,1,2,2,3,3,4,4,5,5,6,6,7,7,8,8,9,9,10,10,11,11,12,12,13,13,14,14,15,15,16,16,17,17,18,18,19,19,20,20,21,21,22,22,23,23,24,24,25,25,26,26,27,27,29,29,30,30,31,31,32,32,33,33,34,34,35,35,36,36,37,37,38,38,39,39,41,41,42,42,43,43,44,44,45,45,46,46,47,47,48,48,49,49,50,50,51,51,52,52,53,53,54,54,55,55,56,56,57,57,58,58,59,59,60,60],"right_children":[2,4,6,8,10,12,14,16,18,20,22,24,26,28,30,32,34,36,38,40,42,44,46,48,50,52,54,56,-1,58,60,62,64,66,68,70,72,74,76,78,-1,80,82,84,86,88,90,92,94,96,98,100,102,104,106,108,110,112,114,116,118,-1,-1,-1,-1,-1,-1,-1,-1,-1,-1,-1,-1,-1,-1,-1,-1,-1,-1,-1,-1,-1,-1,-1,-1,-1,-1,-1,-1,-1,-1,-1,-1,-1,-1,-1,-1,-1,-1,-1,-1,-1,-1,-1,-1,-1,-1,-1,-1,-1,-1,-1,-1,-1,-1,-1,-1,-1,-1],"split_conditions":[1.0611899E-2,-1.1185626E0,2.1982787E0,8.422811E-2,6.5340906E-1,-6.524292E-1,3.372758E-2,9.221049E-1,4.706054E-1,2.0130496E-1,6.1977464E-1,1.1E1,7.193362E-2,6.886726E-1,9.026699E-1,-1.2637205E0,5.5788187E-3,6.2300855E-1,6.059309E-1,1.3025087E0,8.278875E-1,1.4775428E-1,1.1475615E-1,1.7813321E0,1.0684817E0,1.9614683E0,2.394012E0,9.436383E-2,1.2691344E-1,3.1747823E0,4.5926806E-1,2.8855178E0,3.7976913E-2,4.829146E-2,1.4888605E0,1.1697403E0,3.0205688E-1,3.0867718E-2,8.301955E-3,4.2436637E-2,3.0677444E-1,2.8764734E-1,5.9931062E-2,2.9599798E-1,3.5721767E-1,2.861185E-1,2.3573624E-2,2.713699E-1,2.9903042E-1,8.8494736E-1,2.154027E-1,7.04902E-1,4.9874216E-1,2.8659967E-1,2.472299E-1,2.5800716E-3,4.1042507E-2,-1.6427388E0,9.310472E-1,3.462547E-1,1.5363187E-2,-2.630965E-1,-2.1525542E-1,-2.3962075E-1,2.2841927E-1,2.7400836E-1,2.6392877E-1,-2.886816E-1,-2.258396E-1,-2.1298918E-1,-2.5169736E-1,-2.1810158E-1,-2.0190607E-1,2.4947853E-1,-2.1411966E-1,2.5652012E-1,-2.1706685E-1,-2.4773766E-1,-2.1332982E-1,2.2284274E-1,3.060492E-2,-2.517212E-1,-2.1170975E-1,3.5765213E-1,-2.131128E-1,8.677806E-2,-9.842924E-2,2.6266104E-1,-2.5119326E-1,2.8166148E-1,-2.3072557E-1,4.45484E-2,-1.2113421E-1,2.2868685E-1,-2.116383E-1,-1.2940769E-1,-4.436378E-2,1.3058643E-1,-1.6177142E-1,4.7564153E-2,-5.0077144E-2,-1.1205038E-1,1.4358804E-1,-1.0791328E-2,7.591773E-2,-9.108218E-2,2.022926E-1,3.1335577E-1,3.0729818E-1,3.2743636E-1,3.3189893E-1,3.949391E-1,-2.0209862E-1,3.3214486E-1,-2.0302804E-1,2.0875554E-1,-2.1054074E-1,3.576121E-1,-1.9772907E-1],"split_indices":[473,525,514,310,378,515,310,175,534,25,447,537,130,30,292,515,133,376,458,7,392,246,59,53,142,528,278,2,0,524,185,360,228,0,395,58,283,529,22,287,0,76,287,396,106,496,117,352,2,42,532,215,414,61,160,0,0,513,12,256,118,0,0,0,0,0,0,0,0,0,0,0,0,0,0,0,0,0,0,0,0,0,0,0,0,0,0,0,0,0,0,0,0,0,0,0,0,0,0,0,0,0,0,0,0,0,0,0,0,0,0,0,0,0,0,0,0,0,0],"split_type":[0,0,0,0,0,0,0,0,0,0,0,0,0,0,0,0,0,0,0,0,0,0,0,0,0,0,0,0,0,0,0,0,0,0,0,0,0,0,0,0,0,0,0,0,0,0,0,0,0,0,0,0,0,0,0,0,0,0,0,0,0,0,0,0,0,0,0,0,0,0,0,0,0,0,0,0,0,0,0,0,0,0,0,0,0,0,0,0,0,0,0,0,0,0,0,0,0,0,0,0,0,0,0,0,0,0,0,0,0,0,0,0,0,0,0,0,0,0,0],"sum_hessian":[5.5022188E3,8.2846075E2,4.6737583E3,2.4105737E2,5.874034E2,4.470863E3,2.028953E2,1.723738E2,6.8683586E1,1.6967253E2,4.1773083E2,1.8636873E3,2.6071755E3,1.1772885E1,1.911224E2,1.5813069E2,1.4243096E1,2.145501E1,4.7228577E1,2.0379755E1,1.4929279E2,3.4589096E2,7.1839874E1,5.5102484E2,1.3126624E3,